%YAML:1.0
---
opencv_ml_svm:
   format: 3
   svmType: C_SVC
   kernel:
      type: LINEAR
   C: 1.
   term_criteria: { epsilon:1.1920928955078125e-07, iterations:1000 }
   var_count: 64
   class_count: 10
   class_labels: !!opencv-matrix
      rows: 10
      cols: 1
      dt: i
      data: [ 0, 1, 2, 3, 4, 5, 6, 7, 8, 9 ]
   sv_total: 45
   support_vectors:
      - [ 6.05482100e-08, 6.78301788e-08, 6.53751684e-08,
          -4.77376361e-08, 2.07946123e-08, 1.74287766e-08,
          2.46751526e-08, 9.15288734e-09, 1.80047497e-08, 4.34484049e-09,
          1.45788817e-07, -9.36463778e-08, 6.17996392e-08,
          2.22414869e-08, 1.47148526e-07, -7.64944161e-08,
          -3.87359847e-07, -4.73333102e-07, -1.37590035e-07,
          8.64366285e-08, 1.04810806e-06, -3.78619632e-07,
          -1.34651572e-07, -2.75687034e-06, -1.19635831e-06,
          -3.35563328e-07, -1.57562653e-07, 1.62795573e-06,
          1.59523310e-07, -1.99931765e-06, -4.62725978e-07,
          -2.60769411e-07, 1.18877165e-06, 8.79985464e-07,
          -4.81867801e-07, -1.51469521e-06, 7.20983664e-08,
          -4.02316459e-07, -4.43691988e-07, -4.64399079e-08,
          5.40400492e-07, 3.89285788e-07, 3.93221136e-08, 8.62976663e-07,
          -3.29294707e-08, 5.37241931e-07, -5.38483448e-07,
          4.73693831e-07, -3.34828258e-07, -4.49383236e-07,
          -7.64336676e-07, 1.05459287e-06, -2.28127465e-06,
          1.46056334e-06, 5.64059917e-07, 4.11522421e-07,
          -2.14398867e-07, -1.10778217e-06, 1.52210237e-06,
          -4.56050344e-07, 2.46479863e-06, -6.06304809e-07,
          -8.03306477e-07, 3.90455369e-07 ]
      - [ 8.61164864e-08, 9.25574142e-08, -2.81234858e-08,
          2.40622455e-07, 8.28478619e-08, -1.60686700e-08,
          1.31863640e-08, 2.02169836e-08, 2.39347546e-08, 3.19961480e-08,
          3.28863422e-07, 2.23011341e-07, 1.03467094e-07, 5.79847708e-08,
          1.32670436e-07, 1.18916084e-07, -3.28955792e-07,
          -5.44701040e-09, -6.92358881e-08, -6.94027165e-07,
          -1.41917738e-07, -5.84691293e-07, -9.58606620e-07,
          -1.92007610e-06, -1.41427495e-06, -7.50471315e-07,
          -4.05551717e-08, -1.33637542e-07, -4.36098162e-07,
          -1.19800859e-06, -1.13908015e-06, -5.69397230e-07,
          1.04133085e-06, 3.77162706e-07, -1.34587552e-07,
          3.19478310e-08, 3.61036496e-06, 6.53799191e-07,
          -8.45504132e-07, -6.30100544e-07, 7.73294630e-07,
          4.56545251e-07, 3.99229151e-07, -3.71867191e-06,
          -5.68417931e-07, 1.11475526e-06, -1.60025968e-06,
          -1.27833033e-07, -1.08809945e-06, -1.26036105e-06,
          5.17123283e-07, 9.09064170e-07, -1.76464653e-07,
          1.04096409e-06, 1.31236220e-06, -8.26940081e-08,
          3.61269031e-07, 1.01221383e-06, 2.66962547e-06,
          -1.35914718e-06, 1.87825754e-06, -9.79809215e-07,
          5.80576796e-08, -4.44042598e-07 ]
      - [ -1.27227260e-08, 8.45766976e-08, 1.50771001e-07,
          2.35454962e-07, -1.79554249e-09, 9.61138191e-09,
          8.04966049e-09, 7.83947218e-09, 3.97539317e-08,
          -6.59945387e-09, 1.68043840e-07, 2.92534367e-07,
          1.66326814e-07, 1.00035223e-07, 1.14183692e-07, 6.17557561e-08,
          2.56544325e-07, -1.63531899e-06, 2.26484914e-07,
          -2.95625813e-09, -4.04915625e-07, -5.64795243e-07,
          -1.61228365e-06, -2.14320266e-06, -1.25641202e-06,
          -7.91889818e-07, -8.13513225e-07, 1.52633027e-06,
          -1.33971548e-06, -1.33278365e-06, -1.14789020e-06,
          -1.77220068e-06, 2.34664043e-07, 1.03376749e-06,
          1.52161783e-06, -2.07111270e-06, -2.84454327e-09,
          1.30268901e-07, -4.09907074e-07, 6.12707041e-08,
          6.66490450e-07, 1.15125306e-06, 1.21657308e-06,
          -8.02096167e-07, -6.42032546e-07, 1.53038950e-08,
          -5.61996046e-07, 5.64730897e-07, -1.01193484e-06,
          2.07751313e-07, -6.03520959e-07, 9.43817156e-07,
          -1.66773191e-07, 5.56252985e-07, -1.18537969e-06,
          2.88905284e-07, 5.97654321e-07, -1.27456087e-06,
          1.90933929e-06, -5.86470549e-07, 4.51340526e-07,
          9.19787411e-08, 9.73692750e-07, 9.78891990e-07 ]
      - [ 1.20588624e-07, 3.73413712e-07, 3.84366615e-07, 4.85731846e-07,
          3.16562669e-08, 1.88896649e-08, 7.82622411e-09, 1.06156417e-08,
          1.67113736e-08, -4.03422931e-08, 2.04949416e-07,
          1.85714455e-07, 9.27052994e-08, 8.42430978e-08, 2.88025976e-08,
          2.16474803e-08, 6.18131310e-07, 5.93377536e-07, 2.34051299e-07,
          -1.57229454e-06, -7.91608329e-07, -6.94518690e-07,
          -1.28083184e-06, -1.21335393e-06, -8.43843850e-07,
          -8.46375826e-07, 8.63457728e-07, 1.49828259e-06,
          -1.38007056e-06, -2.71844669e-06, -1.51127756e-06,
          -5.80544565e-07, -6.13942859e-07, 3.97360083e-07,
          9.41334761e-08, -2.00248974e-06, -4.37073652e-07,
          6.96286179e-07, -9.10374354e-07, -1.44003445e-06,
          -3.35587828e-07, 4.20999243e-07, -2.02969392e-08,
          9.50346504e-08, -1.59089950e-07, 4.55007694e-07,
          -1.08165534e-06, -1.29970931e-06, -1.52433677e-06,
          -7.95141773e-07, 7.28699433e-07, 1.08935637e-06,
          9.72379212e-07, 2.20674724e-06, 2.85555455e-08, 4.38502383e-07,
          1.30014462e-06, 6.27473923e-07, 9.39896040e-07,
          -1.06483208e-06, -1.14771194e-06, -1.70431190e-06,
          8.61845422e-07, -1.09700818e-06 ]
      - [ 9.58253068e-08, 1.17384069e-07, 1.65385700e-07, 3.59507141e-07,
          4.17673789e-08, 6.11406981e-10, 1.61410245e-08, 1.09743858e-08,
          1.42847698e-08, 2.53429295e-08, 1.28271424e-07, 2.56873989e-07,
          7.05370198e-08, 2.17392930e-08, 5.58048612e-08, 6.33231494e-08,
          3.03010097e-07, 5.83549365e-07, 3.34375557e-07,
          -4.88479714e-07, 5.20918888e-07, 2.53173312e-07,
          -7.13909856e-07, -7.97602638e-07, -4.49106778e-07,
          -5.62470859e-07, -5.62243940e-07, 1.30080491e-06,
          3.01814879e-07, -8.99243787e-07, 2.20988269e-07,
          -2.10005638e-07, 1.17090269e-06, 3.69997821e-07,
          2.79930305e-07, -1.11257794e-08, -6.34528533e-07,
          5.26461292e-07, 7.51315895e-07, -9.19054116e-07,
          7.46923547e-07, 5.27806378e-07, 2.42755590e-07, 1.12390455e-06,
          -8.82244706e-07, 1.77051731e-07, 1.26223529e-06,
          -7.88080214e-08, -2.68102440e-06, -2.83793565e-06,
          -7.97948587e-08, -1.84911585e-07, -3.42984947e-07,
          2.90312528e-07, 4.99046507e-07, 1.57310254e-07, 2.10983080e-06,
          1.48528034e-06, 3.00210149e-06, 1.00973033e-07, 1.01498756e-07,
          3.25841576e-08, -2.89925367e-07, 3.29427763e-07 ]
      - [ 7.28584766e-08, 1.07167502e-07, -5.33779136e-08,
          1.71501526e-07, 4.22177528e-08, 2.38005771e-09, 8.66483507e-09,
          -1.71397993e-10, 1.82179960e-09, 1.86936120e-08,
          2.52261486e-07, 1.37430490e-07, 9.19756147e-08, 5.07393061e-08,
          1.32275062e-07, 7.79578784e-08, 1.98672893e-07,
          -9.62132773e-08, 6.11446865e-07, 1.34859692e-06,
          1.16189324e-06, -8.14798966e-07, -1.52511166e-06,
          -1.70955184e-06, 3.50173423e-07, 5.57564803e-08,
          -7.56601082e-07, 2.45922251e-06, 9.67602432e-07,
          -2.38447865e-06, -1.55457440e-06, -4.95552285e-07,
          2.26937414e-06, 6.25584164e-07, 4.15476705e-07,
          -1.84366922e-06, 3.99671899e-06, -1.33229435e-07,
          2.02968181e-07, -1.18425578e-06, -2.15222599e-07,
          7.78442427e-07, -1.94248003e-07, 2.40169925e-07,
          -2.69729071e-06, 1.05513880e-06, -1.34354525e-06,
          3.47758998e-07, -1.23692041e-06, 2.32928329e-07,
          3.13432724e-06, 1.34241634e-06, -3.24163835e-07,
          6.59583918e-07, -9.43941018e-07, -1.69813134e-07,
          1.47872584e-07, -1.61124115e-06, -2.06876877e-07,
          -3.11718236e-06, 2.62228582e-07, -8.46331318e-07,
          -8.00277064e-07, -6.24314396e-07 ]
      - [ 9.30214625e-08, 1.17164255e-07, 2.71654486e-08, 1.56289332e-07,
          3.36950876e-08, 1.08937641e-08, 1.99033341e-08, 1.67185661e-08,
          3.19883604e-08, 1.75669381e-08, 1.63179237e-07, 1.76220041e-07,
          1.10473628e-07, 4.67089976e-08, 1.22789231e-07, 5.20083105e-08,
          4.13457997e-07, 2.09786904e-07, 2.76379183e-07,
          -1.92485231e-06, 1.61443018e-06, 1.58139551e-06,
          -1.72084370e-07, -2.20667175e-06, 5.24209838e-07,
          1.21672201e-07, 8.76361526e-07, 1.84970816e-06,
          -6.19949276e-07, -1.11970485e-06, -4.76999162e-07,
          -3.07544241e-07, 1.06944583e-06, 6.78773574e-07,
          -3.45290772e-07, -4.67075751e-07, 1.10859708e-06,
          1.14955515e-06, 6.30398006e-07, -7.91671312e-07,
          6.55168037e-07, 4.52072015e-07, -6.18447359e-07,
          -2.75561501e-06, -1.15980924e-06, 3.51735224e-07,
          -8.54206519e-07, 1.23819717e-07, 4.35608030e-08,
          -1.05108893e-06, 1.84431869e-07, 1.04581579e-06,
          -2.69404325e-07, 6.12188614e-07, 1.29081786e-06,
          -8.99618669e-07, -1.96124333e-07, -1.24564895e-06,
          1.19860647e-06, -1.13705994e-06, 6.98205838e-07,
          -7.05356229e-07, -1.46767900e-06, -2.76023712e-07 ]
      - [ 1.11004042e-07, 1.79557745e-07, 6.83405119e-08, 3.59058248e-07,
          4.81149662e-08, 8.43476666e-09, 1.35111735e-08, 5.81234483e-09,
          2.30073276e-08, 2.36941169e-08, 3.52251533e-07, 2.43053847e-07,
          1.08019840e-07, 6.56243486e-08, 1.39416713e-07, 1.43727831e-07,
          5.50253390e-07, -2.49657894e-08, 4.85244449e-08,
          -1.67026656e-06, 4.35160985e-07, 2.79421045e-07,
          -1.92564244e-06, -2.56773228e-06, 8.54719190e-07,
          -1.06784768e-07, 2.59891721e-07, 7.68913196e-07,
          -9.50484207e-07, -2.76600599e-06, -1.04380990e-06,
          -1.27327053e-06, 4.58523090e-07, 1.71407081e-07,
          -3.41731834e-07, 4.40564946e-07, 1.20972891e-06,
          5.28929377e-07, -6.39337827e-07, -1.72933846e-06,
          -4.68951420e-08, 5.41207555e-07, -1.44376770e-07,
          -2.85611395e-06, -8.67660162e-07, 2.62296822e-07,
          -1.46500645e-06, -9.96844733e-07, 3.64192459e-07,
          -5.30201930e-07, 1.66400673e-06, 1.58225180e-06,
          3.72828964e-07, 1.42167289e-06, 9.79792162e-07, 3.04410008e-07,
          2.02582740e-07, 1.90375303e-07, 1.13951245e-07,
          -7.35501203e-07, 1.27057163e-07, -1.06603409e-06,
          -2.67398033e-08, -2.42380366e-07 ]
      - [ 4.66311612e-08, -2.07450785e-08, 1.20605463e-07,
          2.58315879e-07, 2.06811421e-08, -1.25267774e-09,
          3.07114156e-08, 3.16101385e-08, 3.48707341e-10, 1.27858897e-08,
          2.18665463e-07, 1.21313292e-07, 8.15260108e-08, 9.89983278e-08,
          5.63323113e-08, 1.14754108e-07, 4.55803615e-07, 4.98121608e-07,
          -9.02573845e-07, -5.47800369e-07, 1.14864883e-06,
          1.87652233e-06, -6.01083002e-07, -1.29236287e-06,
          3.02357250e-07, -1.71202970e-07, -8.57208136e-07,
          1.56978615e-06, -6.98486460e-08, 1.11816416e-06,
          -7.36026720e-07, -5.86265060e-07, 7.36506593e-07,
          7.18092565e-07, -7.22333553e-08, -2.68715507e-06,
          1.81838845e-06, 6.05157823e-07, -8.58958686e-07,
          -8.01677629e-07, 3.75148801e-07, 7.27101735e-07,
          1.04279174e-07, -1.13947374e-06, 8.92832361e-07,
          8.54099142e-07, -1.20252889e-06, -1.25336143e-07,
          1.71605009e-07, -1.69114867e-06, 6.26614508e-07,
          4.09711987e-07, 1.24850430e-07, -1.34312018e-07,
          5.13831253e-07, 3.60482659e-07, 6.70012525e-07,
          -5.34073308e-07, 2.27706187e-06, -3.87364764e-07,
          4.26521041e-07, -3.21350853e-07, 5.11893006e-07,
          -1.24207372e-06 ]
      - [ 8.30550135e-08, -3.97447408e-08, -3.06457281e-07,
          1.10835309e-07, -3.11834363e-08, -1.27538993e-08,
          2.45990051e-09, 1.92191152e-08, 1.29721052e-08, 6.31423136e-09,
          -3.48704390e-08, 2.08677193e-07, 2.33827784e-08,
          6.32132402e-10, 7.85120857e-09, 3.46932403e-08, 5.96213113e-07,
          1.19172660e-06, -2.51216193e-07, -9.60108537e-07,
          -7.07353649e-07, -6.01540648e-07, -7.43187627e-07,
          -2.64849263e-07, -4.43140436e-07, -1.01163221e-06,
          -2.51718859e-07, -1.81615519e-06, 4.18816484e-07,
          1.19646003e-07, 4.16297077e-08, -5.11045251e-09,
          -1.37884172e-06, -5.53193331e-07, -2.64865065e-07,
          9.10860138e-07, 4.32470370e-06, 2.29906689e-07,
          -4.46054486e-07, -1.08597965e-06, -1.16525939e-06,
          -5.32557806e-07, -5.57605063e-07, -4.02133219e-06,
          2.41149405e-06, 2.25916369e-06, -7.55464782e-07,
          -3.09410188e-06, -2.07990661e-06, 1.10074791e-06,
          5.56806071e-07, -4.40989851e-07, -2.49138985e-08,
          -1.12241969e-06, 7.21969855e-07, -5.55133113e-07,
          9.12924179e-07, 2.26099655e-06, 8.68276288e-07,
          -2.32599604e-07, 2.30972034e-07, -8.34022718e-09,
          1.02359036e-06, 1.60199178e-07 ]
      - [ 2.93272748e-08, -7.01894809e-09, 5.35798144e-08,
          1.65809269e-07, 7.51328599e-09, 6.37588204e-09, 2.77928933e-08,
          4.73902428e-09, 4.50905269e-09, 2.17696243e-08, 3.55818486e-08,
          1.58030630e-07, 6.83256545e-08, 2.82330124e-08, 7.12093540e-09,
          4.48978561e-08, 2.88378715e-07, -1.61771788e-06,
          -3.05330332e-07, 4.15681711e-07, -9.51998402e-07,
          -1.07907806e-06, -2.16991975e-06, -3.07337388e-07,
          1.00639636e-06, -1.02341531e-07, -1.59208957e-06,
          -2.57146951e-07, -1.36082724e-06, -1.69908603e-07,
          -5.24131451e-07, -1.38141718e-06, -6.37274070e-07,
          3.97614656e-07, 1.22357278e-06, -1.50996698e-06,
          -4.60654377e-07, 2.35418511e-07, -1.16692732e-07,
          -5.13906322e-08, -8.03317732e-08, -5.45658054e-07,
          7.59412671e-07, -2.58572754e-07, -4.29702283e-07,
          -1.29158627e-06, -1.05003244e-06, -6.88476547e-08,
          -6.54889504e-07, 4.76983871e-07, 1.61476322e-07,
          -8.19257309e-07, 1.60433785e-06, -6.36303696e-07,
          -1.25940107e-06, 3.30237839e-07, 1.12725434e-06,
          -8.44630335e-07, 6.92145875e-07, 1.49165871e-07,
          -1.32079310e-06, -6.81420318e-07, 8.84526514e-07,
          -2.38356762e-07 ]
      - [ 4.63720831e-08, 1.58108850e-08, 1.21011992e-08, 1.77493533e-07,
          -8.67261907e-09, -1.47965307e-09, -3.83667409e-09,
          4.43397852e-09, 4.93357888e-09, -2.72355555e-10,
          3.55772549e-08, 2.01938178e-07, 2.55768597e-08, 6.25045349e-09,
          -1.87443838e-09, 1.41760281e-09, -3.28608934e-07,
          1.20010588e-06, -1.91443200e-06, -4.83328677e-07,
          -1.89392358e-06, 8.28545978e-07, -3.25601945e-06,
          -2.92927268e-07, -6.72223734e-07, -1.71441502e-06,
          -1.12791622e-06, -7.79706681e-07, -8.73539250e-07,
          3.58639824e-07, -1.37321410e-06, 3.63808141e-07,
          -1.89664047e-06, -2.88968693e-07, 9.09356629e-07,
          1.18005050e-06, -1.30048011e-06, 4.80305062e-07,
          1.06316031e-06, -9.74332011e-07, -3.66521078e-07,
          -2.78666505e-07, 8.84458416e-07, 1.94592161e-07,
          -4.05698444e-07, -6.77866410e-07, 9.11432892e-07,
          -9.93910021e-07, -1.29476382e-06, 1.25658619e-06,
          -1.42313212e-07, -1.23254028e-06, 9.51057643e-07,
          8.34768173e-07, -5.83314261e-07, -1.69482476e-07,
          1.67157077e-06, 3.38523620e-07, -4.98809243e-07,
          -1.82030249e-07, -1.25932092e-06, -1.04265735e-06,
          5.10580037e-07, -1.87954555e-07 ]
      - [ 3.68808202e-08, -9.37065323e-08, -6.04821793e-08,
          -4.77625463e-07, -1.99126102e-08, -8.11792589e-09,
          4.64017536e-09, -2.25351537e-09, -2.39377194e-08,
          -1.58032076e-08, -2.26534507e-08, 2.12579980e-08,
          -2.01110595e-08, -2.06197655e-08, -1.53723256e-08,
          -3.59269201e-08, -8.68397407e-08, -5.69109034e-07,
          -2.34334578e-07, 7.82748145e-07, -1.58250691e-06,
          -1.12332305e-06, -6.83712301e-07, 3.04038667e-06,
          2.56280964e-06, -2.56302269e-06, -3.10753580e-06,
          2.09985024e-06, -8.75468913e-07, 7.64474123e-07,
          -4.02878896e-07, -1.73255478e-06, 5.67622521e-07,
          4.59344250e-07, 1.42076465e-06, 4.51384676e-06, 1.75151501e-06,
          -3.40234976e-07, 1.33424749e-06, -3.52845461e-07,
          6.99662053e-07, 2.63914131e-07, 9.28756663e-07, 8.18556714e-07,
          1.48202309e-06, 4.63608501e-07, 2.24985843e-06,
          -4.17724948e-07, -2.35250309e-06, -1.95167331e-06,
          -1.19399783e-06, -7.43459566e-07, -1.17327409e-06,
          -1.60113439e-06, 2.29471925e-06, 1.44064745e-06,
          2.15838986e-06, 4.11290239e-06, 2.63553056e-06, 1.30651802e-06,
          -2.12714184e-07, -2.99892690e-07, -1.17920445e-06,
          -6.82282575e-07 ]
      - [ 7.47742490e-08, 2.91779827e-08, -2.48484398e-08,
          1.34387719e-07, -1.66359992e-09, -1.87730720e-09,
          -2.60338706e-09, 7.20284188e-09, 1.02168514e-08,
          1.57313842e-08, 2.24421957e-08, 1.14158844e-07, 3.16360413e-08,
          1.68344574e-08, 1.79362267e-08, 1.99079206e-08, 1.56186820e-06,
          5.29623719e-07, 3.56697342e-07, 1.20088282e-06,
          -6.56725206e-07, 5.19224670e-07, -4.70920895e-07,
          1.76819117e-06, 8.40643224e-07, 1.58046234e-08,
          -3.50274092e-07, 4.35988511e-07, 1.22428446e-06,
          4.50530251e-07, 7.79887976e-09, 2.17042771e-06, 3.43166846e-07,
          5.30453235e-07, 1.52650364e-06, -2.27874148e-06,
          2.60332081e-06, 3.15571242e-07, -1.16429383e-07,
          -8.92506705e-07, -4.37119070e-07, 2.46307081e-07,
          1.02033209e-06, -9.17929981e-07, -9.73011311e-07,
          8.43190037e-07, -7.63830030e-08, -1.45848912e-06,
          -2.24374685e-06, -3.21968088e-07, 1.53577173e-06,
          5.09302595e-07, 8.14389011e-07, 6.69174014e-08, 5.22242516e-08,
          -1.97108093e-07, 5.57188457e-07, 9.52322807e-07,
          -2.94886235e-07, -1.13453825e-06, -8.24514075e-07,
          1.01520016e-07, -6.86442547e-07, -6.45419505e-07 ]
      - [ 1.32109918e-07, 4.65103049e-08, -4.80727884e-08,
          2.34240986e-07, -9.02781494e-09, 1.43225218e-08,
          -7.28140570e-09, 1.12616956e-08, -1.85191851e-09,
          9.76939507e-09, 5.67000171e-08, 2.14896730e-07, 2.33979076e-08,
          1.63490075e-08, 7.37360262e-09, 2.14012221e-08, 4.70763467e-07,
          2.13443769e-07, -2.72013750e-07, -9.61702654e-07,
          5.43306044e-07, 6.54144685e-07, 4.20433935e-07, 1.80473904e-07,
          1.36036340e-06, -3.60934393e-07, 5.66584049e-07,
          3.38519754e-08, -3.76487783e-08, 2.20308280e-07,
          -5.31892113e-08, 1.89265805e-07, -5.44708257e-07,
          -1.20051254e-07, -3.08813071e-07, 8.56723048e-08,
          -1.51508220e-06, 6.08309733e-07, -4.06812802e-07,
          -1.47933417e-06, -1.31637464e-07, -5.68327323e-08,
          3.89381114e-07, -1.55660405e-06, 6.83823600e-07,
          5.21021548e-07, -1.79115557e-06, -1.05289166e-06,
          -2.70391638e-07, -8.82749418e-07, 6.09145843e-07,
          -3.32375748e-07, -2.38913227e-08, -7.23045787e-07,
          1.36380868e-06, -1.20488301e-06, 2.81257456e-07,
          -3.89439180e-07, 9.91384326e-08, -3.27796329e-07,
          -1.73146919e-08, 3.34877910e-07, -1.60545585e-06,
          7.96892380e-07 ]
      - [ 6.59335626e-08, 1.93411349e-08, -1.58374760e-07,
          1.35912799e-07, -1.06864229e-09, -4.28831548e-09,
          3.61980277e-08, -1.04829556e-09, 7.53603668e-09,
          -8.55445847e-09, 1.03255829e-07, 2.11650104e-07,
          8.52309725e-08, 8.52152411e-08, 5.50597292e-08, 1.07563075e-07,
          7.90786828e-07, 3.76853990e-07, -1.17214836e-06,
          -1.08510494e-06, -9.57961333e-07, 2.33160819e-07,
          -1.68850625e-06, -4.51237270e-07, 1.62034803e-06,
          1.94583052e-07, -8.32641206e-07, -9.52668017e-07,
          -1.35475341e-06, -3.96714086e-07, -8.46984506e-07,
          -3.87744649e-07, -1.12437033e-06, 2.13146777e-07,
          4.15488813e-07, -1.12363898e-06, 3.00798501e-06,
          1.54009751e-06, -9.67025585e-07, -2.75891534e-06,
          -9.73530973e-07, 5.16377725e-07, 5.25514395e-07,
          -3.22605888e-06, 2.79887331e-06, 4.64530700e-07,
          -6.57252542e-07, -3.13140754e-06, -6.60194530e-07,
          -1.09134938e-07, 8.44508179e-07, -6.12968222e-07,
          2.77283050e-07, -8.19853483e-07, -6.67381869e-07,
          3.36190624e-07, 1.22186634e-07, 4.02536529e-07,
          -2.79400666e-07, 1.18142403e-08, -1.76656329e-07,
          -1.41866292e-06, -1.11852692e-07, 4.37009078e-08 ]
      - [ 4.45560673e-08, 1.60230869e-08, -7.35200842e-08,
          2.56816094e-07, 2.03291897e-10, 6.43951392e-10,
          -2.81571499e-09, 5.59725422e-09, 3.35155059e-09,
          1.65231668e-08, 1.97960173e-08, 7.32427239e-08, 2.54440042e-08,
          9.18703655e-11, 4.38451186e-09, -3.59552477e-09,
          7.34440505e-07, 3.71421095e-07, -3.83240234e-07,
          -1.71641602e-07, -7.68456289e-07, 4.23330420e-07,
          -2.30274532e-06, 1.35435334e-06, 1.33264189e-06,
          -5.99662712e-07, -2.19983531e-06, -4.28151310e-07,
          -1.47216170e-07, 6.84462975e-07, 4.39688137e-07,
          1.21893538e-06, -8.65272568e-07, 2.25241052e-07,
          7.07729328e-07, 6.99495672e-07, 2.13660357e-07,
          -9.35187146e-08, 5.81479071e-07, -3.82857536e-07,
          -7.12404301e-07, -4.23985909e-07, -5.44496572e-07,
          -1.58393823e-06, -5.64439745e-07, -1.88438810e-06,
          2.94727755e-07, -9.89005912e-07, -5.06421657e-07,
          -3.29900303e-07, 1.09854841e-06, -3.03468198e-07,
          2.32629077e-06, -1.53321089e-08, 1.19153844e-06,
          5.98895326e-07, 7.88785997e-07, 1.72783427e-06,
          -1.39594860e-07, -2.52651006e-07, -1.75544596e-06,
          -3.04677599e-07, 1.27781931e-07, -5.97806491e-07 ]
      - [ -5.58373934e-08, -3.25548513e-08, 4.07427336e-07,
          -2.64842122e-08, 2.88998123e-08, 1.79865882e-08,
          7.00330993e-09, -4.85068918e-09, 1.51076875e-08,
          4.81923390e-09, -7.89331054e-08, -9.58028181e-08,
          -2.57825032e-08, -4.68253454e-08, -9.29142843e-08,
          -2.00445527e-08, 5.52294182e-07, -7.32456584e-08,
          7.99990971e-07, 4.88270246e-07, 3.13528119e-07,
          -1.02412957e-06, -5.90169748e-07, -4.03561643e-07,
          1.11337079e-06, 5.36408777e-07, -8.78360368e-07,
          1.71984311e-06, -8.75799401e-07, 4.74282189e-07,
          -2.36106146e-07, -1.07823575e-06, -2.15339639e-07,
          7.90712591e-07, 1.74433421e-06, -9.29184353e-07,
          -4.39746327e-06, 4.62881303e-07, 2.59957659e-07,
          5.92502602e-07, 3.91551453e-07, 2.64995123e-07, 1.02308570e-06,
          5.60591070e-06, -5.88487524e-07, -1.54108795e-06,
          -9.99394842e-07, 1.54385793e-06, 8.99978147e-07,
          5.74916726e-07, -1.17179559e-06, -7.90109596e-07,
          1.23215315e-07, -8.26977725e-07, -8.40043128e-07,
          3.82001645e-07, 7.83841017e-07, -2.85011311e-06,
          -3.93757176e-07, 1.03985690e-06, -1.31099807e-06,
          1.04666969e-06, 3.46611813e-07, 1.83668121e-08 ]
      - [ -8.57681925e-09, -1.09484084e-07, 1.36791812e-07,
          -1.09315526e-08, 1.03010800e-08, 1.31046773e-08,
          -1.37463045e-08, -1.99955590e-08, 1.41895882e-08,
          -2.77706551e-08, -2.28335661e-08, 5.79496771e-08,
          -2.10559765e-08, -5.78496673e-09, -3.31096182e-08,
          -3.96132158e-08, 1.71676504e-07, 1.11722113e-06,
          1.08128779e-06, -9.93093522e-07, -3.59671226e-08,
          -3.79759911e-07, -1.16753006e-06, -3.08688868e-07,
          -9.40160646e-07, -1.56562055e-06, 1.20734546e-06,
          1.39292865e-06, -8.67308302e-07, -3.49078874e-07,
          -1.33759818e-06, -7.44121920e-08, -2.56966655e-06,
          -6.92115407e-07, 1.32235030e-07, 1.02594231e-06,
          -2.64016899e-06, 9.76942943e-07, -1.58016655e-06,
          -2.19981166e-06, -1.61028277e-06, -8.12540691e-07,
          -6.93806825e-08, 1.93971505e-06, -1.00674231e-06,
          -6.81971642e-07, -1.37570635e-06, -2.09980726e-06,
          3.70448646e-07, 8.63990010e-07, -9.63357024e-07,
          7.82221605e-07, 8.30851491e-07, 1.74701586e-06,
          -3.19031358e-07, 7.11883047e-07, 1.30673459e-06,
          -2.06707071e-07, 4.45327885e-07, 2.55496332e-07,
          -4.41918957e-07, -1.32992295e-06, 5.10174118e-07,
          -8.71516363e-07 ]
      - [ 2.40739695e-08, -8.68716086e-08, 1.25387302e-07,
          -4.93431607e-08, 2.33250486e-09, 1.17589116e-09,
          8.97668939e-10, -1.76602089e-09, -2.29667627e-08,
          -1.07056142e-08, -8.73527117e-09, 8.82919515e-09,
          -1.16856258e-08, -1.05875380e-08, -2.97717917e-09,
          -3.29255485e-08, 2.96505448e-07, 4.39103644e-07,
          7.97198595e-07, -2.64185587e-07, -1.04362061e-06,
          3.40274681e-07, -3.58152477e-07, 2.42618370e-07,
          3.36188180e-07, -1.00101784e-06, -1.17470051e-06,
          1.33324750e-06, -4.28883794e-07, 6.62271091e-08,
          1.37212896e-06, 2.47159107e-07, 9.07550202e-07, 5.05623916e-07,
          1.38504367e-06, 1.55468024e-06, -3.37040660e-06,
          7.68713335e-07, -2.83661592e-07, 1.48943158e-07,
          5.27654322e-07, -2.92776221e-08, 5.29947144e-08,
          4.86705085e-06, -5.13294765e-07, 1.77220087e-07,
          -4.12483246e-07, 4.02480879e-07, -2.20342329e-07,
          -8.03829948e-07, -2.28182444e-06, -1.32202535e-06,
          -4.61063848e-07, -1.19292395e-06, -1.22572146e-06,
          1.90347976e-06, 1.26127793e-06, 2.77603277e-07,
          -3.23458437e-07, 2.20236620e-06, -8.80590449e-07,
          7.15321002e-09, 1.29091109e-06, -7.77420951e-07 ]
      - [ 6.89086566e-09, 5.72450425e-08, 1.27339476e-07, 6.32066630e-08,
          1.84681568e-08, 9.92952831e-09, -1.07432090e-08,
          -5.55557333e-09, -2.61156661e-08, 2.71874114e-08,
          1.30462707e-08, 2.83229493e-08, -1.70727450e-08,
          -1.32858569e-09, -5.10247178e-09, -1.01179098e-09,
          1.13368617e-06, -3.41820794e-07, 1.11376607e-06,
          3.06002079e-07, 8.92512730e-07, 1.11329761e-07, 1.45773163e-06,
          1.26206248e-06, 1.26936425e-06, 4.18640127e-07, 9.43533450e-07,
          1.07193807e-06, 7.93503375e-07, -3.04372122e-07,
          1.06801537e-07, 1.63077118e-06, 6.74454270e-07, 4.57058121e-07,
          7.23889684e-07, -1.49183575e-06, -1.76276592e-06,
          -6.19793468e-07, -9.41892438e-07, -2.75413811e-07,
          -2.86829248e-07, 8.34870207e-07, 8.72453768e-07,
          1.02683543e-06, -9.82158099e-07, -3.60382529e-07,
          -5.70123177e-07, -2.35588971e-07, 1.97241229e-06,
          -3.93918526e-07, 3.67015105e-07, 2.16614495e-07,
          5.42069643e-07, -1.25823576e-07, -6.67582071e-07,
          3.00324530e-07, -1.33505671e-06, -1.64649975e-06,
          -1.20748257e-06, 5.85773634e-08, -1.70953194e-06,
          2.72932965e-07, 2.73499040e-07, -6.83314397e-07 ]
      - [ 8.27473867e-10, 5.73839323e-08, 2.51631349e-07,
          -5.33779030e-08, -8.41693493e-10, 9.91735760e-09,
          -6.81786516e-10, -5.47333556e-09, -1.92680822e-08,
          3.06303392e-08, -8.04339351e-09, 4.39554064e-08,
          -1.94724024e-08, 1.53230739e-09, 2.27497643e-09,
          -8.49956283e-09, 2.04418529e-06, 9.26008340e-07,
          1.04524634e-06, -1.64755033e-06, 1.67718042e-06,
          5.07323193e-07, 5.37944061e-07, 4.66564131e-07, 1.69709017e-06,
          3.17197788e-07, 1.80049051e-06, 1.24065537e-06,
          -4.11014781e-07, 3.93520679e-07, -1.09563166e-06,
          1.37016593e-06, -3.50412904e-07, 4.86230221e-08,
          -7.70817280e-07, -1.22390111e-06, -8.71710768e-07,
          1.14996772e-06, -3.52213817e-07, -4.04168020e-07,
          -3.89064041e-07, 1.39914960e-07, -8.87447868e-07,
          -7.02444765e-07, 1.07646883e-06, -4.87020259e-07,
          -1.74006561e-06, 8.31637635e-07, 7.34598018e-07,
          1.36591582e-09, -5.43507603e-08, 3.21589027e-07,
          2.12681982e-07, 3.34278667e-07, 7.74509829e-07,
          -8.92130231e-07, -8.00225394e-07, -5.48057926e-07,
          5.49008746e-07, 3.41815507e-07, -2.16159350e-07,
          4.22209382e-07, 9.85036479e-08, 1.05170523e-06 ]
      - [ 4.02716793e-08, 5.14010097e-08, 2.09220133e-07, 9.33423081e-08,
          1.95788985e-08, 6.70856082e-09, 9.31968946e-10, 2.43729170e-09,
          -3.26401595e-09, 4.42537962e-09, 4.76922679e-08,
          6.47124043e-09, 1.02487103e-08, 2.76662737e-09, 7.71873854e-09,
          7.38838768e-09, 1.56195347e-06, 4.72202544e-07,
          -1.62521076e-07, -1.73915737e-06, -1.40978230e-07,
          -5.52395463e-08, -2.36533879e-07, -7.46362616e-07,
          2.34033314e-06, 3.29827230e-07, 4.76374453e-07, 4.26611621e-07,
          -1.67858093e-06, -9.88747161e-07, -3.54903420e-07,
          -2.35182142e-07, -8.43116140e-07, 5.39011410e-07,
          8.76926435e-07, 3.17908864e-08, -1.83893818e-07,
          5.49496633e-07, -1.39715337e-06, -2.68181702e-06,
          -6.38285314e-07, 8.25327049e-07, -1.34257249e-07,
          -5.08507753e-07, 1.99742672e-07, -1.04426954e-06,
          -2.48945685e-06, -2.08480151e-06, 1.07639016e-06,
          1.19612446e-06, 9.02975955e-07, 4.58429440e-07, 7.41622898e-07,
          3.54496564e-07, -3.15426661e-07, 8.28078495e-09,
          -1.05103356e-06, -1.97641816e-06, -9.06531000e-07,
          1.40601117e-07, -1.59641786e-06, -1.17653713e-06,
          1.96797316e-08, -3.23899798e-07 ]
      - [ -8.62473613e-08, -4.81518541e-08, -7.71837527e-09,
          -9.20174941e-08, 3.95365074e-09, -2.83295432e-09,
          -6.05638029e-09, 1.37660461e-09, 1.09350600e-08,
          1.38994138e-09, -9.27690706e-08, -6.71487967e-08,
          -2.48666403e-08, -2.07561897e-08, -9.04118913e-09,
          -6.06568022e-08, 3.82775994e-07, -1.89882357e-07,
          3.12901420e-07, -3.56065243e-07, 1.05573497e-06,
          2.17682168e-06, 1.64686435e-06, 4.73759656e-07, 1.87456430e-06,
          -5.29028092e-08, 7.93521963e-07, 5.08644405e-07,
          1.50469077e-07, 2.28437852e-06, 4.70438067e-07,
          -3.97263591e-07, 3.86343288e-07, -2.68519983e-07,
          -1.26974135e-06, -2.36752248e-06, -2.09389164e-08,
          -4.71043009e-08, -8.89757928e-07, -7.90172123e-07,
          -5.13120256e-07, -4.29548720e-07, -1.14665886e-06,
          8.90381443e-07, 9.19262618e-07, -1.70455633e-06,
          -2.27206328e-06, 1.08524239e-06, 1.20037294e-06,
          -2.64881010e-07, -4.74955954e-07, 1.21809563e-07,
          -2.12024389e-07, -2.12964778e-06, -1.16303625e-06,
          8.69084943e-07, -1.46651246e-06, 7.76936645e-07,
          -1.00374757e-06, 7.18799640e-07, -1.90861601e-06,
          1.08314066e-06, 1.30176113e-06, -1.25492488e-06 ]
      - [ 7.81749705e-08, 1.74978098e-07, 3.66245416e-07, 1.04734241e-07,
          -2.87804625e-08, -1.00568025e-08, -2.84413648e-09,
          -2.54386578e-09, 4.56484495e-09, 2.17100427e-09,
          1.15862605e-07, 2.88022539e-09, 6.81032075e-09, 7.51145368e-09,
          2.16363620e-08, 4.70238284e-08, 1.87693956e-07, 6.42668510e-07,
          -1.84895498e-06, -9.80274422e-07, -6.42015607e-07,
          3.54275826e-08, 8.30130546e-07, 5.53684742e-07,
          -3.66547482e-07, -1.97355303e-06, 1.12141367e-06,
          -4.69893536e-07, -1.84724755e-07, -6.34925186e-07,
          -1.11445149e-06, 9.86026521e-07, -1.23809787e-06,
          -6.90440629e-07, -6.78919179e-08, 3.29119615e-07,
          3.77508115e-07, -1.25567354e-07, -1.37748589e-06,
          -1.03592345e-06, 2.16658762e-07, -2.11471686e-07,
          -3.26273010e-07, 1.60224397e-06, -7.38359347e-07,
          -8.83471841e-07, 4.69414431e-07, -4.07922414e-07,
          -4.15456810e-07, -5.52461756e-07, 1.32057562e-06,
          1.33509718e-06, 1.54684756e-06, 3.28048100e-06, 8.24157553e-07,
          3.49608143e-07, 1.83481760e-07, 1.98593375e-06, 9.78317161e-09,
          -8.74107172e-07, -7.04836680e-07, -2.60417050e-06,
          -5.53037808e-07, -8.01833039e-07 ]
      - [ 2.48637537e-08, -7.30557659e-08, 5.54107693e-08,
          -1.90126883e-08, -4.49946924e-08, 4.77784301e-09,
          -5.03600384e-10, 2.26063102e-09, -5.65626657e-09,
          5.74849335e-10, 1.45166235e-08, 1.29621047e-09, 1.69163474e-08,
          8.33263147e-09, 2.05060822e-08, 4.22832755e-08, 1.28597037e-07,
          8.03809144e-07, 1.51838776e-07, -3.75978601e-07,
          2.38993380e-07, 4.27798540e-07, 1.09742041e-06, 1.36540905e-06,
          4.85852411e-07, 5.45555352e-08, -5.48261198e-07,
          7.66225924e-07, 9.48928914e-07, -1.18314631e-07,
          6.94263861e-07, 9.84837243e-07, 1.46000207e-06, 6.58205238e-07,
          1.39249426e-06, 2.79068172e-06, 1.05391553e-06, 6.94907442e-07,
          6.34003413e-07, -3.60005828e-07, 9.76870979e-07,
          2.82745617e-07, -1.31675051e-06, 1.14634986e-06,
          9.54459622e-08, -3.84215639e-07, 5.02187447e-07,
          1.10335741e-07, -1.48554329e-06, -1.60473689e-06,
          4.53836776e-07, -8.70314125e-07, -5.28187513e-07,
          -3.38147601e-07, 1.52991629e-06, 5.68421683e-07,
          5.49368792e-07, 3.00096167e-06, -1.29883958e-07,
          3.75524650e-07, -5.58667125e-07, -9.66596303e-07,
          -1.23832649e-06, -1.27276314e-06 ]
      - [ 5.24244719e-08, 3.26780913e-08, -2.92099145e-07,
          1.63006355e-08, -7.52620988e-09, 1.65501723e-09,
          -1.25447617e-08, -7.17648163e-09, 9.65927249e-09,
          -1.39965257e-08, 2.99556788e-08, 3.03398089e-08,
          -4.51426896e-09, 2.13412523e-08, 3.50908920e-08,
          1.06293339e-08, 5.86632609e-07, 1.68105612e-06, 3.30462711e-07,
          7.71091322e-07, 1.03577065e-06, 1.23929851e-06, 2.52166728e-06,
          1.27870169e-06, 4.44989638e-07, -1.14867497e-07,
          1.74661920e-06, 8.57087969e-07, 2.78859375e-06,
          -3.95522278e-07, 1.20880841e-07, 2.71538079e-06,
          9.92784408e-07, -9.17129768e-08, -8.35353489e-07,
          1.09738494e-07, 1.60252364e-06, -4.57830993e-07,
          -9.32693069e-08, -1.03997638e-06, -4.20076447e-07,
          -2.68925291e-08, -4.53669912e-07, -2.10013604e-06,
          -2.27581450e-06, 7.28714724e-07, -3.09035585e-07,
          -3.75988662e-07, -1.52334462e-06, 1.12948692e-06,
          1.50605933e-06, 1.59945887e-06, -6.43837780e-07,
          5.48373237e-07, 4.72911125e-07, -3.96373537e-07,
          -5.72942156e-07, 3.70654618e-07, -1.17157742e-06,
          -1.79786593e-06, 1.25286519e-08, 2.30862156e-07,
          -1.65846245e-06, -2.61706958e-07 ]
      - [ 9.06974478e-08, 6.90595030e-08, -1.19072908e-07,
          3.13416741e-08, -3.90046440e-09, 7.35091266e-10,
          -7.96520272e-09, -1.33393641e-09, -2.47532004e-08,
          4.95888797e-09, 1.09807196e-07, 1.29734190e-07, 6.99758962e-09,
          5.48214025e-08, 7.75386439e-08, 2.10720810e-08, 6.45273701e-07,
          2.04863613e-06, 1.07336655e-06, -2.17655770e-06,
          2.25645704e-06, 1.46866250e-06, 1.35942696e-06, 1.44700650e-07,
          1.30441765e-06, 2.43859517e-07, 2.22619406e-06,
          -2.78175264e-07, 1.11651116e-06, 6.97809412e-07,
          5.58193960e-07, 9.88469878e-07, 1.22037633e-07,
          -2.47936015e-07, -8.26476537e-07, -3.97375715e-07,
          -6.86244618e-07, 1.52135044e-06, -3.80114038e-08,
          -1.17990305e-06, 2.40397526e-07, 5.34311994e-07,
          -1.13876479e-06, -3.58751822e-06, 1.31470460e-06,
          1.78113510e-06, -1.89042589e-06, -2.94510500e-07,
          1.08832080e-06, -8.18284150e-07, 8.07836159e-07,
          1.02146851e-06, 1.58106587e-07, 9.79698370e-07, 1.40129805e-06,
          -7.58016881e-07, -1.24113330e-06, -2.45978725e-07,
          -1.14229614e-07, -4.79536141e-07, 1.75822066e-07,
          -2.89686568e-07, -8.94168522e-07, 5.10195946e-07 ]
      - [ 1.31081933e-07, 9.39179259e-08, -1.41730780e-07,
          -6.82211905e-08, 3.04589465e-09, -7.93749866e-09,
          -1.08708615e-08, -6.16654017e-09, -1.42377381e-08,
          -3.33173205e-08, 2.14861586e-07, 9.02418407e-08,
          1.31622251e-08, 7.35043670e-08, 1.29543778e-07, 2.54481236e-08,
          8.54873804e-07, 1.23909854e-06, -9.15889871e-07,
          -1.55739224e-06, -6.74904470e-08, 6.30724230e-07,
          9.49018855e-08, -3.70365456e-07, 1.84122518e-06,
          5.04103184e-07, 1.03638740e-06, -1.27893998e-06,
          3.31983472e-07, -2.65400399e-06, 1.92860938e-07,
          3.85249308e-07, -6.34972110e-08, -5.65737366e-07,
          -1.89835731e-07, 1.92939797e-06, 1.45925560e-06,
          4.67021749e-07, -8.12721339e-07, -1.35712060e-06,
          -9.39399399e-07, -7.12244514e-07, 3.24242905e-07,
          -3.93805158e-06, -3.87519520e-07, -6.76571801e-07,
          -9.53814265e-07, -1.13264673e-06, 6.45258808e-07,
          5.00292515e-07, 1.30048909e-06, 9.04423814e-07,
          -2.51885055e-08, 6.74609566e-07, 3.43842487e-07,
          6.26284944e-08, -1.07299877e-06, -1.69054530e-07,
          -1.16343472e-06, -1.12168289e-06, -3.87896563e-07,
          -1.50673350e-06, -1.10087933e-06, -1.11870884e-06 ]
      - [ 5.99651386e-08, 2.25121326e-08, -5.11292804e-08,
          7.57068435e-08, -1.94744469e-08, -7.04965153e-09,
          -5.14748999e-09, 5.38337108e-09, -1.02481579e-08,
          -1.35141240e-08, 7.20274898e-08, -2.28581484e-07,
          -2.81917689e-08, -1.58661280e-08, -1.66681282e-08,
          -8.53768896e-08, 2.14729070e-07, 9.91167894e-07,
          -1.02467357e-06, -4.91129526e-07, 6.36529251e-07,
          1.49941297e-06, 1.32016896e-06, 1.63949153e-06, 1.35254834e-06,
          -4.89454180e-07, 3.18108206e-08, 2.00803242e-07,
          1.27114026e-06, 3.35834585e-07, 5.42829582e-07, 1.95768689e-06,
          2.42334039e-07, -2.11350695e-07, -4.09584516e-07,
          7.19292586e-07, 9.87276053e-07, 3.90377286e-10,
          -1.54480759e-07, -1.00915645e-06, -5.71473890e-07,
          -9.51115169e-07, -1.11867803e-06, 1.15837437e-07,
          1.18516118e-06, -1.26423686e-06, 9.12202296e-08,
          -1.38809105e-06, 4.90447917e-07, -6.90215757e-07,
          6.09209735e-07, -6.70171616e-08, -1.43643689e-07,
          -1.51067056e-07, 1.35467678e-06, 5.73250851e-08,
          -8.27375501e-08, 2.08501342e-06, -5.90761545e-07,
          2.90705998e-07, -5.99741199e-08, 4.64780584e-07,
          -2.74551041e-07, -7.77572495e-07 ]
      - [ -5.13076248e-09, -1.34940549e-07, -1.08655911e-07,
          -3.13485344e-07, -1.27190836e-08, -5.61018121e-10,
          3.87694810e-09, 9.03147690e-09, -2.25996146e-08,
          -1.58308637e-08, -3.76966867e-08, -1.48438852e-08,
          2.26004548e-09, -6.97094327e-10, -1.05992477e-08,
          3.20384763e-09, 4.92807715e-07, 8.91365346e-07, 9.09692176e-07,
          -2.44515547e-07, -7.42853103e-07, -3.48062258e-07,
          1.45795218e-06, 2.05411220e-06, 1.32292303e-06, 5.00269664e-07,
          -1.08816403e-06, -1.60620637e-08, 1.07866265e-06,
          8.33397621e-07, 1.27738281e-06, 6.94989978e-07, 2.44645207e-06,
          1.59644867e-06, 1.63416109e-06, -8.70196061e-07,
          7.91260959e-07, 4.64124071e-07, 5.77453477e-07, 8.93551714e-07,
          9.72894668e-07, 1.57443210e-07, 6.79422669e-08, 5.29723877e-07,
          -8.27009558e-07, 6.38516610e-07, -9.77342509e-08,
          5.44207239e-07, 4.76150177e-07, -1.28842350e-06,
          4.03280438e-07, 1.99704189e-07, -1.39364090e-07,
          -1.10015992e-06, 1.74717414e-07, 6.05637354e-07,
          -1.08291681e-06, 1.00371699e-06, 2.14765208e-07,
          9.08044569e-07, 1.42520889e-07, 6.54330222e-07,
          -1.56718627e-07, 8.88998841e-07 ]
      - [ 3.15321422e-08, 1.89036982e-07, 9.87740023e-08, 1.14903429e-07,
          -2.00140438e-09, -2.73988476e-09, -1.35963096e-09,
          1.60865810e-08, -4.77645479e-08, 6.10215807e-08,
          1.39536027e-09, 3.72299915e-08, -2.17778098e-08,
          -9.21448429e-09, 1.99246344e-08, 4.93226899e-08,
          8.73332169e-07, 4.27164196e-07, 3.46868717e-07, 1.11004454e-06,
          1.76669789e-06, 3.96998914e-08, 2.95426412e-06, 1.82462281e-06,
          1.83103725e-06, 2.42458236e-06, -6.84527379e-07,
          2.14902247e-08, 3.60978879e-06, 1.45328409e-06, 1.29925766e-07,
          1.82550502e-06, 3.31163938e-06, 1.12286932e-06, 5.67101779e-07,
          -1.79292363e-06, 2.49337234e-07, -1.38648863e-06,
          1.84541750e-06, 2.33539004e-06, 1.87180729e-06, 1.21266112e-06,
          6.22570212e-07, -1.54319241e-06, -1.28452371e-06,
          3.83244469e-07, 5.83921747e-07, 2.89255900e-06, 6.73007492e-07,
          -1.04117575e-07, 2.17755564e-06, 3.90626894e-07,
          7.06289768e-07, 2.19438988e-07, 5.17155456e-07,
          -1.17900534e-07, -9.37236564e-07, 8.32521962e-08,
          -6.53696475e-07, 2.19129859e-07, -9.26032271e-07,
          6.81971699e-07, -7.88539978e-07, -2.74017395e-07 ]
      - [ 1.54112794e-08, 9.37436511e-08, 7.91681245e-08,
          -1.44554278e-07, -5.86061022e-09, 3.11571657e-09,
          1.86195670e-09, 1.04162021e-08, -2.01505457e-09,
          3.88336581e-08, -2.72020806e-08, -3.18970272e-08,
          -9.70837544e-09, -1.36848355e-09, 3.14611199e-08,
          7.03392047e-08, 6.71138707e-07, -4.73822155e-08,
          1.57475438e-06, -8.30465638e-07, 1.63071581e-06,
          9.38223650e-07, 2.51567684e-07, -2.66840800e-07,
          1.22316749e-06, 5.16349587e-07, 1.39729889e-06, 5.33149034e-07,
          -1.12831981e-06, 1.70481212e-06, 1.13232602e-06,
          1.00480349e-06, 7.26699739e-07, 5.89976253e-07, 3.81935337e-08,
          -8.02376974e-07, 1.36600789e-07, 6.21228935e-07,
          2.05874335e-06, 1.84853866e-06, 9.52871630e-07, 4.01517610e-07,
          -1.33766218e-06, -2.94521237e-06, 2.59474496e-06,
          8.87554734e-07, 7.92179549e-07, 1.07547260e-06, 6.32134743e-07,
          -8.87731005e-07, -3.54022490e-07, -4.85439955e-07,
          -4.41726058e-07, -7.03462376e-07, 1.64806079e-06,
          6.63740366e-07, 1.09465169e-07, 5.30735065e-07, 5.80911603e-07,
          5.39180235e-07, 5.37255858e-07, 2.41091357e-06,
          -1.20287234e-06, 4.02391720e-07 ]
      - [ 1.48210830e-08, -1.11904672e-08, -1.55111621e-07,
          -5.01998159e-07, 7.12686887e-09, -2.01213357e-09,
          -5.50121904e-09, 1.03567359e-08, -1.42081031e-08,
          -8.74542661e-09, -5.43973009e-08, -7.87787684e-08,
          -1.43951127e-08, -1.99544603e-09, -1.11600391e-08,
          -5.39059730e-09, 1.43249167e-06, -4.27758238e-07,
          -2.63009042e-07, -9.86736836e-07, -5.30544753e-07,
          7.49470757e-07, -3.45791278e-07, -7.20798255e-07,
          2.83427903e-06, 6.50435254e-07, -8.72646012e-07,
          -1.87180126e-06, -1.24948497e-06, -1.06590896e-07,
          1.96404721e-06, 9.26578494e-08, 1.15030252e-06, 4.29751850e-07,
          -1.73606551e-07, -1.60090144e-06, 7.60533396e-07,
          -1.49327448e-07, 9.70294991e-07, -1.60519789e-06,
          3.63682801e-07, 3.91887340e-07, -2.13635280e-06,
          -2.12120995e-06, 1.28138527e-06, 5.40205292e-07,
          -2.07767982e-07, -1.62709500e-06, 8.42449595e-07,
          -3.04141849e-07, 3.03805564e-07, 4.82907978e-07,
          -2.28171402e-08, -6.08902894e-07, 4.85322118e-07,
          -2.84368809e-07, -1.60959439e-06, -8.53515445e-08,
          -6.81443908e-07, 9.64309237e-08, 1.09870223e-06,
          1.23807945e-06, -4.05839771e-08, 1.33715753e-06 ]
      - [ -8.23805024e-08, -5.69316150e-08, -1.26180552e-07,
          -3.55595944e-07, 1.72144876e-08, 1.12995329e-08,
          5.91514526e-09, 9.27390964e-09, 4.84152984e-09,
          -2.33805908e-09, -7.21082642e-08, -2.32420660e-07,
          -4.35606680e-08, 3.30421512e-09, -2.27902230e-08,
          -5.64676661e-08, 4.57453240e-07, -4.64088146e-07,
          -4.72243329e-07, 4.10548239e-07, 1.56017256e-06,
          9.83323730e-07, 9.95725713e-07, -1.03232821e-07,
          2.45052252e-06, 1.43033969e-06, -4.35519411e-07,
          -4.85022554e-07, 8.43169687e-07, 1.64013431e-06,
          8.98126245e-07, -9.95282107e-07, 1.69761483e-06,
          7.53441441e-07, 5.39767939e-07, -1.46283378e-06,
          1.42264767e-07, -9.27202848e-08, 1.26773543e-07,
          8.91409741e-07, 3.88391044e-07, -2.83878279e-07,
          -4.46741126e-07, -6.08183370e-07, 1.15752016e-06,
          -2.93571986e-07, -2.20125048e-06, 1.05102094e-06,
          9.75000717e-07, -2.02945941e-07, -4.38390117e-07,
          -8.66125802e-08, 2.98295248e-07, -2.35696939e-06,
          5.87266754e-07, 4.39219718e-08, -1.22171389e-06,
          -2.17420265e-07, -2.53975799e-07, 1.41486578e-06,
          1.46132629e-06, 2.59639432e-06, 2.47614935e-07, 7.28150894e-07 ]
      - [ 1.32680853e-07, 1.93911006e-07, 9.66307994e-08, 5.19767639e-07,
          6.02717165e-08, 1.03190629e-08, 4.29244063e-09, 1.55964552e-09,
          5.54691475e-08, 3.15371231e-08, 1.92449875e-07, 1.03550690e-07,
          2.58751740e-08, 1.94589340e-08, 9.36719324e-09, 7.94374415e-08,
          -6.35253485e-08, -9.65313689e-07, -1.03034859e-06,
          1.36689300e-06, 1.07309506e-06, 3.70120688e-07, 1.56836586e-06,
          2.35587962e-07, 4.95443935e-08, 1.09914879e-06, 3.84917058e-07,
          -4.85955454e-08, 1.11118266e-06, 4.54333730e-07,
          -5.39570863e-07, 4.98239842e-07, 2.06888231e-07,
          9.85722721e-08, -1.66258758e-06, -1.58623106e-06,
          -7.12236954e-08, -1.96286305e-06, 1.51574659e-06,
          1.36253732e-07, -1.72385199e-07, -3.21269020e-08,
          1.54394073e-07, -9.93512344e-07, -5.44158092e-06,
          -1.61592027e-06, 5.86090493e-07, 1.02297508e-06,
          7.72275769e-07, 7.22487016e-07, 2.46812078e-06, 3.23929567e-06,
          2.80585937e-06, 2.38745201e-06, 6.61271542e-07,
          -8.91614150e-07, -4.95223048e-07, -1.77870174e-06,
          -3.16919170e-07, -2.32858611e-06, -8.42481995e-07,
          3.41968267e-08, -9.45383761e-07, -9.02697877e-07 ]
      - [ 7.61257439e-08, 6.11248083e-08, 2.07622563e-07, 3.69280926e-08,
          7.88395838e-09, 7.16830428e-10, -4.63707517e-09,
          2.47976040e-09, 1.90639859e-08, 4.04434317e-08, 8.12560472e-08,
          5.58681457e-08, 4.30582503e-08, 6.48504894e-08, 3.77941376e-08,
          4.11729717e-09, -4.73229882e-08, -3.00496083e-07,
          -1.88567711e-07, -1.66115649e-06, 1.76216611e-06,
          1.89622290e-06, 1.85956893e-07, -1.53468307e-06,
          -2.50665238e-07, 8.42783663e-07, 2.47040157e-06,
          -1.89552225e-06, -1.78378727e-07, 1.07043263e-06,
          -3.57953439e-07, 3.13604176e-07, -1.04040873e-06,
          -4.16237043e-07, -1.37385507e-06, -2.40661393e-06,
          -1.06928780e-06, 1.29820080e-06, -9.04308990e-07,
          -5.67054030e-07, -7.33307104e-07, -3.97199955e-07,
          -9.60587499e-07, -2.70859232e-06, 7.59567172e-07,
          -5.80852600e-07, -2.37790482e-06, -4.27105817e-07,
          1.29553848e-06, 3.16711436e-07, 1.23617497e-06, 1.15878481e-06,
          9.91504407e-07, -5.24707843e-07, -7.92308299e-08,
          -3.08460562e-06, -1.63075924e-06, -1.83484201e-06,
          -4.85610542e-07, -7.16794602e-07, 9.53532151e-07,
          -6.55064298e-07, -9.12970677e-07, 1.51802931e-06 ]
      - [ 4.19470574e-08, 1.43759934e-07, -3.89084853e-08,
          1.90061911e-07, 1.28616051e-08, -7.26673122e-09,
          -3.23824878e-09, 1.40680584e-11, 2.07805257e-08,
          1.89591081e-08, 5.72796601e-08, 3.28488596e-08, 3.09792725e-08,
          3.08425925e-08, 2.33393891e-08, -1.22031907e-09,
          9.97798395e-08, -8.04054594e-07, -1.15610078e-06,
          -1.38080873e-06, -3.51197258e-08, 9.27563860e-07,
          -1.25744435e-07, -1.18051662e-06, 1.03523359e-06,
          7.69685073e-07, 5.88498153e-07, -1.73057981e-06,
          -6.99504881e-07, -1.02858439e-06, 5.14483389e-09,
          2.42449403e-07, -1.42772353e-06, -9.67103347e-07,
          -2.07840753e-06, -2.17087745e-06, -4.97613371e-07,
          -3.21195046e-07, -1.69352916e-06, -1.80547386e-06,
          -1.19552317e-06, -6.63265894e-07, -1.10389476e-06,
          -3.57519843e-06, 6.01895522e-07, 3.15617029e-07,
          -2.65398262e-06, -2.57578699e-06, 2.08138158e-06,
          6.85268446e-07, 9.06489277e-07, 1.92950424e-07, 9.05074330e-07,
          -1.43703076e-07, -1.77838629e-07, -1.11242082e-06,
          -1.89463867e-06, -1.87806927e-06, -1.10440692e-06,
          -9.82888992e-07, 8.26682083e-07, -7.45076363e-07,
          2.40225148e-07, 6.41290853e-07 ]
      - [ -4.45776749e-08, 6.57533690e-08, -1.11519206e-07,
          3.58776440e-08, 8.41751824e-09, 1.54504254e-09, 2.97388247e-09,
          5.65253222e-09, 1.27278446e-08, -6.99473723e-09,
          -3.62172123e-08, -2.13276607e-07, -2.30197958e-08,
          -1.19368861e-08, -5.16242373e-08, -8.24629680e-08,
          -2.53849322e-07, -5.90980790e-07, -1.86722536e-06,
          -3.14638953e-07, 8.76164208e-08, 1.08822894e-06,
          1.75309864e-07, -6.11069765e-07, 8.69028554e-07,
          -9.51789403e-09, -2.14518593e-07, -1.03094237e-06,
          -2.15230898e-07, 6.77496132e-07, -3.38444892e-07,
          3.15337047e-07, -7.53452696e-07, -1.40479699e-07,
          -9.46275009e-07, -2.74489548e-06, 8.02920226e-07,
          -4.38305335e-07, -1.71521788e-06, -3.93056155e-07,
          -6.64932486e-07, -6.88538250e-07, -1.35090988e-06,
          -1.61110074e-06, 3.25756815e-07, -1.00337297e-06,
          -2.73057003e-06, -7.63471292e-07, 2.54402971e-06,
          5.73063403e-07, 2.14372250e-07, -1.06805111e-07,
          3.75376061e-07, -8.53933102e-07, -7.71948407e-08,
          -1.97882287e-06, -1.96624615e-06, -7.93275717e-07,
          -3.54240598e-07, -9.78493404e-07, 7.57980274e-07,
          -1.15593252e-07, 6.46335309e-07, 2.44812725e-07 ]
      - [ 2.08939177e-09, 2.10333617e-08, 7.28881773e-08,
          -1.70336364e-07, -1.14322631e-08, -3.15753401e-09,
          2.37399123e-09, 2.94249070e-09, -1.28453772e-08,
          8.81854678e-09, -2.32276207e-08, 2.43728842e-08,
          -5.10028952e-09, 2.13668105e-09, 3.72511355e-09,
          -4.02114653e-09, -3.77728043e-07, -1.15586872e-07,
          -1.77937898e-06, -2.12536247e-06, 1.22272127e-06,
          2.30563813e-07, -2.98449443e-08, -1.24272913e-06,
          -1.62411979e-07, -5.00257158e-07, -5.82876893e-08,
          -9.92020318e-07, -6.02699004e-07, 9.15168119e-09,
          -2.43656416e-07, -1.47430546e-06, -1.18909998e-06,
          -7.11863891e-07, -1.35362154e-06, 3.19348459e-07,
          -1.37311346e-07, 1.50066967e-06, 5.90965271e-07,
          -2.31303261e-07, -2.14054609e-07, -6.29809847e-07,
          -1.58739488e-06, -1.85911711e-06, 1.28239094e-06,
          2.92403598e-07, -1.17537820e-06, 3.58002183e-07,
          -8.21108813e-07, -6.77023309e-07, -1.14982208e-06,
          4.86176717e-08, -2.93158422e-07, 2.58092143e-07,
          1.89063064e-06, -9.40275697e-07, 1.16300930e-06,
          6.48572438e-07, 1.56101453e-06, 4.83403504e-08, 1.14894794e-06,
          3.48579704e-07, -1.67393796e-06, 1.26425175e-06 ]
      - [ -6.83766199e-09, -5.54060620e-08, 8.41594385e-08,
          -2.22824312e-07, -6.69646116e-09, -4.23454649e-09,
          5.86207127e-09, 4.75684692e-09, 1.42242200e-08,
          -4.36896954e-08, -1.13835386e-09, -3.87509935e-08,
          5.69076386e-09, 3.16532245e-09, 1.62583591e-09,
          -3.51501517e-09, -5.46958574e-07, 2.69407991e-07,
          -1.96168935e-06, -7.88278385e-07, -1.08048584e-06,
          -1.82452226e-07, -2.08520669e-06, -2.30365777e-06,
          -3.19941108e-07, -5.10372899e-07, -1.07396443e-06,
          -6.05159642e-07, -2.24054952e-06, -8.12219639e-07,
          -1.77752881e-07, -2.47895582e-06, -2.22641552e-06,
          -7.82443522e-07, -1.71008128e-06, -4.55808532e-07,
          7.09826338e-07, 1.05054005e-06, -1.53524411e-07,
          -4.03911827e-06, -1.23678126e-06, -6.52908966e-07,
          -1.07370670e-06, 3.37528093e-07, 3.23018321e-06,
          -6.19744810e-07, 3.99085195e-07, -4.30032924e-06,
          -3.46916345e-08, -1.60414515e-07, -9.81098765e-07,
          -7.47563945e-07, -7.15064004e-07, -2.94427565e-07,
          -2.33726567e-07, 6.38871597e-07, -9.61552757e-08,
          3.94254982e-07, 6.24054849e-07, 3.41458644e-07, 1.17427919e-06,
          -1.33458400e-06, -1.82164072e-07, 2.52101788e-08 ]
      - [ -7.22694580e-08, -4.39104646e-08, 6.73589762e-09,
          -1.90149677e-07, 8.64825811e-09, 2.90388735e-09,
          3.95923294e-09, 5.84139093e-09, 1.77418684e-08,
          -1.49783972e-08, -3.45220101e-08, -8.30890912e-08,
          8.58261107e-09, 1.54110114e-09, -7.40575645e-09,
          -3.41725013e-08, -5.75422007e-07, 4.41157795e-07,
          -5.19371042e-07, 5.08926178e-07, 6.44400586e-07,
          6.48908951e-07, -6.90190234e-07, 1.70825032e-07,
          -2.72003611e-08, -3.57165931e-07, 3.95148788e-07,
          4.32966061e-07, -5.79514449e-07, 1.02840340e-06,
          9.77253549e-08, -1.04894355e-07, -5.43998283e-07,
          -2.19026475e-07, -9.31322973e-07, -7.50804531e-07,
          2.51530111e-07, 1.20697919e-07, 4.07719369e-07, 4.19229536e-07,
          2.61608051e-07, -9.29483349e-07, -1.61614855e-06,
          -1.54712575e-06, -3.39072443e-07, -2.66808752e-06,
          -7.11140018e-08, 9.48677041e-07, 4.75631083e-07,
          -5.16188322e-07, -1.56960800e-06, -1.18586286e-06,
          1.11550787e-06, -2.75200307e-07, -8.41375041e-08,
          -1.57407442e-07, -1.00743898e-06, 2.02599404e-06,
          7.28306475e-07, 1.35027574e-06, -3.95549819e-07,
          -9.58372937e-08, 7.81133394e-07, 1.02621357e-06 ]
      - [ 8.02041988e-09, -6.16256557e-08, -9.88633317e-08,
          -1.52673891e-07, 5.33784350e-10, -5.35089395e-09,
          1.03589570e-09, -1.06984521e-09, 1.64141376e-08,
          -4.20466861e-08, 2.25428067e-08, -6.07985271e-08,
          -8.02507483e-09, 3.61388408e-09, 3.20421956e-09,
          4.05421385e-09, 1.82976635e-07, -4.95454174e-07,
          -2.08168876e-06, 8.72834107e-07, -2.27115424e-06,
          -1.15368869e-06, -8.05416676e-07, 1.49991408e-07,
          -2.63596700e-08, -7.09641341e-08, -1.90745914e-06,
          -8.64736535e-07, -1.07714050e-06, -1.65689266e-06,
          4.06376131e-07, -1.57116887e-07, -3.07304418e-07,
          6.67779290e-08, 5.02555963e-07, 3.87576364e-07, 2.03031914e-06,
          -8.37723292e-07, -9.08647223e-07, -1.24967050e-06,
          -5.50935397e-07, -1.56970074e-07, 2.68342006e-07,
          1.98702401e-06, 3.89935792e-07, -5.43995782e-07,
          1.09306643e-06, -2.21709024e-06, 2.58651085e-07,
          2.99527727e-07, -6.39825714e-07, -7.14975783e-07,
          -2.35484023e-07, 3.06583665e-08, -4.85256521e-07,
          1.09535677e-06, 1.12398597e-08, 2.86470907e-07, 5.05705771e-07,
          6.34016786e-08, 2.44041274e-07, -6.22643938e-07,
          -1.63292512e-07, -9.57376983e-07 ]
      - [ -5.38863141e-08, -2.12782201e-08, -1.35746461e-07,
          9.59935633e-08, 8.37526670e-09, 2.32461583e-09,
          -8.53999094e-10, 1.05106830e-08, 1.99951292e-10,
          -7.02947567e-09, -3.92162249e-08, -1.48833124e-07,
          3.82498122e-09, -6.68071642e-09, -3.52143275e-08,
          -2.77311507e-08, -5.12633449e-07, -7.50026800e-07,
          -1.16533488e-06, 1.32543209e-06, -1.02021158e-06,
          -1.83600591e-07, -8.09178971e-07, 7.96693030e-07,
          -9.38135486e-07, -5.41475117e-07, -1.58590547e-06,
          1.12345766e-07, 1.26980993e-07, 2.80696852e-08,
          -1.55014945e-07, 7.16503450e-07, 7.67992276e-07,
          8.68304468e-08, -2.50685531e-07, -1.15539524e-06,
          4.69266837e-07, -9.42484121e-07, -4.86324154e-07,
          -3.88791335e-07, 1.14454927e-07, -2.16047596e-07,
          -2.88006525e-08, 1.53125325e-06, -1.86085072e-06,
          -1.08976394e-06, 6.34993000e-07, -3.73794762e-07,
          1.99809904e-07, 2.93102801e-07, 3.82808963e-07,
          -1.90661709e-07, 3.29281221e-07, -1.16145839e-06,
          -1.39030101e-06, 3.93383658e-07, 3.39300215e-07,
          7.56926397e-08, -5.34700007e-07, -1.10203622e-07,
          -1.14758257e-06, 4.53745770e-07, 1.18399385e-06,
          -6.00616033e-07 ]
      - [ -9.26322414e-08, -1.11215904e-07, -1.35267953e-07,
          -5.26784802e-08, -4.73112216e-09, 6.26694074e-09,
          -3.97761962e-10, 5.04451503e-09, -1.87901872e-09,
          -1.49245025e-08, -7.72495596e-08, -2.43097304e-07,
          -4.10961540e-08, -4.29533653e-09, -7.56168035e-08,
          -6.64628601e-08, -4.61392773e-07, -5.76466960e-07,
          8.68293455e-08, 3.80437001e-07, 5.35622974e-07, 1.51207087e-06,
          1.70511981e-07, 7.55527253e-07, -6.81893596e-07,
          -3.30060516e-07, 9.87771500e-08, 7.09155813e-07,
          2.69499054e-07, 1.73639069e-06, -2.90740047e-07,
          6.41910788e-07, 5.28981843e-07, 2.46028208e-07,
          -3.39524973e-07, -1.49303082e-06, 1.46483487e-07,
          -2.83364699e-07, -7.91488731e-07, 1.77162474e-06,
          3.32110432e-07, -5.34048866e-07, -5.17152898e-07,
          1.87861770e-06, 1.98349099e-07, -6.26357121e-07,
          -4.85286193e-07, 1.80214522e-06, 3.25322134e-07,
          -2.60100137e-07, -5.90361651e-07, -4.31390731e-07,
          1.82484087e-07, -7.09467884e-07, -6.17130411e-07,
          3.71648269e-07, -9.99246481e-08, 1.04094556e-06,
          7.41583790e-07, 5.32360559e-07, 4.62055709e-08, 1.35249741e-06,
          8.67823019e-07, 1.44263765e-07 ]
   uncompressed_sv_total: 1187
   uncompressed_support_vectors:
      - [ 1.14411606e+02, 1.09297600e+02, 1.25398750e+02, 1.58693485e+01,
          5.07029381e+01, 2.75453491e+01, 3.92416496e+01, 2.75493031e+01,
          5.31874962e+01, 3.70266304e+01, 5.81568527e+01, 1.58693485e+01,
          5.05039406e+01, 2.54972191e+01, 2.26274166e+01, 5.47512856e+01,
          8.06650635e+03, 9.00906836e+03, 1.52880830e+04, 2.58885605e+04,
          1.43128701e+04, 1.32500059e+04, 1.27698604e+04, 3.81752222e+03,
          5.25402930e+03, 7.80706494e+03, 1.25111426e+04, 2.51929316e+04,
          1.87630723e+04, 1.28897041e+04, 1.33614932e+04, 7.98485010e+03,
          1.54386396e+04, 3.83989648e+03, 7.82683105e+03, 4.20936562e+04,
          1.27660742e+04, 3.96237012e+03, 3.94877383e+04, 7.39241455e+03,
          1.18063662e+04, 6.40238037e+03, 8.50529102e+03, 3.71452734e+04,
          1.54342949e+04, 8.23506445e+03, 4.54191758e+04, 1.60717881e+04,
          9.51895312e+05, 1.07374938e+06, 8.51863375e+05, 2.40291750e+06,
          1.24621038e+06, 6.09879188e+05, 7.05115188e+05, 7.64872562e+05,
          9.44784375e+05, 1.16633562e+06, 1.01202025e+06, 2.24031925e+06,
          1426321., 7.38247625e+05, 9.65491938e+05, 8.92059250e+05 ]
      - [ 2.90990200e+01, 1.31869125e+01, 1.62180996e+01, 2.35740128e+01,
          3.80939102e+01, 5.06606560e+01, 4.24264050e+00, 0.,
          3.16227770e+00, 8.48528099e+00, 2.91635933e+01, 1.53323650e+01,
          6.21731377e+01, 2.60804596e+01, 2.02579803e+01, 3.78270569e+01,
          7.32042969e+03, 9.95717285e+03, 1.28118506e+04, 3.01609395e+04,
          1.80275664e+04, 1.32267109e+04, 8.81927539e+03, 4.54880469e+03,
          5.84836816e+03, 7.64065918e+03, 1.26751904e+04, 2.71489805e+04,
          1.92335508e+04, 1.23188789e+04, 1.13964746e+04, 7.54295996e+03,
          1.80435469e+04, 4.63276953e+03, 9.11007422e+03, 3.94456133e+04,
          1.35961504e+04, 5.70070947e+03, 3.70496758e+04, 1.06079512e+04,
          1.36939932e+04, 6.98870312e+03, 9.34218652e+03, 3.79197617e+04,
          2.01075430e+04, 9.86812402e+03, 4.25959648e+04, 1.93624141e+04,
          9.30151500e+05, 1.04880188e+06, 7.70815312e+05, 1848383.,
          1.08531588e+06, 5.68778625e+05, 6.96331938e+05, 7.15878812e+05,
          9.26792562e+05, 1.12762438e+06, 9.51962125e+05, 1.77666250e+06,
          1.29096412e+06, 7.05697562e+05, 9.24664750e+05, 8.69027250e+05 ]
      - [ 5.54868317e+01, 2.24426498e+01, 6.91194000e+01, 2.91415329e+01,
          9.12265396e+01, 2.50633965e+01, 5.03146935e+01, 2.76024361e+01,
          7.81250305e+01, 4.19188728e+01, 2.05912609e+01, 1.64924221e+01,
          3.78113899e+01, 2.96345062e+01, 1.94741859e+01, 1.01980391e+01,
          6.55988818e+03, 6.21430225e+03, 1.23544395e+04, 2.17357422e+04,
          1.43200859e+04, 1.09094785e+04, 6.84002637e+03, 3.57851611e+03,
          3.47370044e+03, 6.13086865e+03, 9.19153711e+03, 2.31862363e+04,
          1.42058916e+04, 8.07001074e+03, 7.58956738e+03, 5.02171777e+03,
          1.93160996e+04, 5.67883838e+03, 1.04026123e+04, 4.06837148e+04,
          1.59080225e+04, 7.74918555e+03, 3.82033789e+04, 1.11571533e+04,
          1.56823721e+04, 7.29326123e+03, 9.50165137e+03, 3.81980039e+04,
          2.25483262e+04, 1.00476699e+04, 4.71344141e+04, 1.80541465e+04,
          6.88653188e+05, 8.08135125e+05, 6.13854625e+05, 1.39569262e+06,
          760151., 4.26927469e+05, 5.69785125e+05, 5.11830219e+05,
          6.45981688e+05, 8.85439188e+05, 7.81381688e+05, 1.38025625e+06,
          9.77114500e+05, 5.22071938e+05, 737786., 6.90176562e+05 ]
      - [ 1.10453606e+01, 7.21110249e+00, 0., 7.37972412e+01,
          7.92585297e+01, 2.64276028e+01, 7.61577368e+00, 1.21700878e+01,
          3.16227770e+00, 7.07106829e+00, 1.20830460e+01, 2.64253006e+01,
          1.40000010e+01, 1.86023254e+01, 1.14017534e+01, 0.,
          6.64063672e+03, 6.92554932e+03, 1.49149785e+04, 2.02772461e+04,
          1.27785889e+04, 1.10021543e+04, 6.43429199e+03, 4.36932275e+03,
          4.93108154e+03, 5.46519580e+03, 1.00176357e+04, 1.78114277e+04,
          1.33564072e+04, 1.02452139e+04, 7.25942627e+03, 6.06993799e+03,
          2.12203457e+04, 6.77566699e+03, 1.06212402e+04, 39265.,
          1.74754688e+04, 6.96645850e+03, 3.80093320e+04, 1.25969609e+04,
          1.60823857e+04, 8.38990039e+03, 1.12346494e+04, 3.74318125e+04,
          2.94663555e+04, 1.18772549e+04, 4.56793086e+04, 1.81056992e+04,
          9.82022562e+05, 8.67821812e+05, 6.56487250e+05, 1.46780650e+06,
          9.69512750e+05, 5.90084688e+05, 754754., 8.35318812e+05,
          9.91517625e+05, 9.17765625e+05, 7.51473312e+05, 1.52149575e+06,
          1.14679512e+06, 7.49869062e+05, 9.05452062e+05, 9.26353562e+05 ]
      - [ 3.22176628e+01, 2.70995522e+01, 4.47213602e+00, 5.75186615e+01,
          6.02076378e+01, 1.61340389e+01, 2.60814743e+01, 3.16227770e+00,
          3.16227770e+00, 1.57858438e+01, 4.47213602e+00, 2.05321941e+01,
          1.06703079e+02, 1.65600452e+01, 1.29574175e+01, 1.58113880e+01,
          7.51136963e+03, 7.22058643e+03, 1.09667734e+04, 1.93868242e+04,
          1.22229863e+04, 1.18167715e+04, 5.50289941e+03, 4.86484961e+03,
          4.12797949e+03, 4.82277490e+03, 1.01496289e+04, 2.04510898e+04,
          1.40316533e+04, 9.46946289e+03, 8.47418652e+03, 6.45174609e+03,
          1.77898926e+04, 6.37281836e+03, 1.15092441e+04, 3.92980078e+04,
          1.68117188e+04, 7.35030273e+03, 3.68189609e+04, 1.35108350e+04,
          1.57344150e+04, 7.30991064e+03, 1.08657295e+04, 4.25192539e+04,
          3.01427012e+04, 1.27201230e+04, 4.58610547e+04, 1.92829805e+04,
          885267., 9.31679875e+05, 6.82742875e+05, 1.80023762e+06,
          1.01923212e+06, 5.39159938e+05, 6.71926438e+05, 6.87462125e+05,
          8.51573625e+05, 9.78132250e+05, 8.38743062e+05, 1.78754512e+06,
          1.22380575e+06, 6.44965625e+05, 846443., 8.27439500e+05 ]
      - [ 1.11622772e+01, 2.03460255e+01, 3.34640770e+01, 1.10453606e+01,
          5.23777237e+01, 0., 1.41421354e+00, 3.16227770e+00,
          1.63245544e+01, 4.24264050e+00, 1.34467258e+01, 9.05538559e+00,
          6.33578491e+01, 2.92601528e+01, 8.94427204e+00, 3.16227770e+00,
          6.01154053e+03, 7.94588721e+03, 1.35810537e+04, 1.90613516e+04,
          1.14371338e+04, 1.12536396e+04, 7.02225537e+03, 3.94296265e+03,
          3.84524976e+03, 5.91458838e+03, 1.12110127e+04, 1.87041992e+04,
          1.51533691e+04, 9.92706738e+03, 9.68668066e+03, 5.59114307e+03,
          1.84734277e+04, 6.20873779e+03, 1.18498887e+04, 3.74369180e+04,
          1.81387246e+04, 6.91901660e+03, 3.75117344e+04, 1.19594668e+04,
          1.46689365e+04, 8.50753223e+03, 9.91596289e+03, 4.34739609e+04,
          3.01127832e+04, 1.34311885e+04, 4.29330898e+04, 1.98985078e+04,
          8.92307312e+05, 9.32069250e+05, 6.86631188e+05, 1807034.,
          1.03205738e+06, 5.43339188e+05, 6.57841125e+05, 6.86264312e+05,
          8.38098938e+05, 1.00076550e+06, 8.49226938e+05, 1.76215975e+06,
          1.24372788e+06, 6.59800188e+05, 8.27052562e+05, 8.23454750e+05 ]
      - [ 3.22462120e+01, 5.38571587e+01, 1.75067329e+01, 0.,
          1.58444244e+02, 2.78386135e+01, 0., 0., 0., 1.56963835e+01,
          1.47752237e+01, 5.12820129e+01, 7.53432007e+01, 2.86430912e+01,
          2.02579803e+01, 1.14084892e+01, 7.18514209e+03, 7.43947559e+03,
          1.10776738e+04, 1.91713691e+04, 1.41754033e+04, 1.18404805e+04,
          6.38958838e+03, 4.17379883e+03, 4.18753320e+03, 5.73564746e+03,
          8.93042090e+03, 2.10682305e+04, 1.41686533e+04, 1.18607705e+04,
          8.86167578e+03, 6.86897119e+03, 1.81777656e+04, 6.29973779e+03,
          1.16338818e+04, 3.69855703e+04, 1.92186074e+04, 7.86762646e+03,
          3.53980117e+04, 1.44354502e+04, 1.47801699e+04, 7.70900586e+03,
          1.09409902e+04, 4.15810508e+04, 3.10838867e+04, 1.22689990e+04,
          4.47023867e+04, 1.97878281e+04, 9.02638312e+05, 9.35712188e+05,
          6.76596250e+05, 1.81315025e+06, 1.02430981e+06, 5.53996812e+05,
          6.54510875e+05, 6.94083812e+05, 8.36298125e+05, 9.96874562e+05,
          8.47613062e+05, 1.75552775e+06, 1.25187425e+06, 6.57706125e+05,
          8.47441312e+05, 8.06050062e+05 ]
      - [ 32., 7.24516535e+00, 3.09630051e+01, 8.26129723e+00,
          2.21421356e+01, 4.47213602e+00, 2.35203171e+01, 0.,
          1.10710678e+01, 3.22894135e+01, 2.96537514e+01, 3.17978306e+01,
          4.30553856e+01, 10., 3.59640198e+01, 5.58343239e+01,
          7.88392334e+03, 7.70171240e+03, 1.24901836e+04, 1.66844258e+04,
          1.32110312e+04, 1.08703848e+04, 5.38224219e+03, 3.57567578e+03,
          3.73524927e+03, 5.33228369e+03, 8.21065918e+03, 1.71675312e+04,
          1.59313066e+04, 1.08920830e+04, 9.24123340e+03, 5.58292725e+03,
          2.24033984e+04, 8.40178125e+03, 1.56970625e+04, 6.08446875e+04,
          2.66657715e+04, 1.15668145e+04, 3.98500039e+04, 1.20652744e+04,
          1.73358613e+04, 9.60876855e+03, 1.11717158e+04, 4.24463008e+04,
          2.63342891e+04, 9.23904492e+03, 4.29793008e+04, 2.07086133e+04,
          1.07253812e+06, 9.27440750e+05, 737455., 1.54658438e+06,
          9.29828812e+05, 6.20142250e+05, 6.50027562e+05, 7.28834125e+05,
          1.01148094e+06, 1.02139762e+06, 8.35797500e+05, 1614288.,
          1.14093350e+06, 6.67188250e+05, 8.70725438e+05, 8.69715562e+05 ]
      - [ 4.79283905e+01, 5.83095169e+00, 0., 1.72691078e+01,
          3.84946442e+01, 0., 2.83230324e+01, 3.16227770e+00,
          4.93172798e+01, 2.59100113e+01, 0., 2.75528679e+01,
          1.51622772e+01, 7.21110249e+00, 1.76893654e+01, 6.72949295e+01,
          7.08863965e+03, 7.45113770e+03, 1.24187090e+04, 1.44768701e+04,
          1.34022461e+04, 1.20845605e+04, 7.96962061e+03, 4.33985645e+03,
          3.66942749e+03, 5.72133545e+03, 9.68488770e+03, 1.81156133e+04,
          1.45289121e+04, 1.11207695e+04, 9.23642676e+03, 4.57075098e+03,
          2.27409219e+04, 7.98281152e+03, 1.63239258e+04, 4.98825820e+04,
          2.27094102e+04, 1.12835752e+04, 3.92627617e+04, 1.09793945e+04,
          1.87922715e+04, 1.06045000e+04, 1.18969678e+04, 4.08506289e+04,
          2.71149629e+04, 1.17132129e+04, 4.42239766e+04, 1.98496699e+04,
          1.06997762e+06, 9.85842500e+05, 8.15166625e+05, 1.45480512e+06,
          9.29254312e+05, 6.16811375e+05, 6.12654125e+05, 7.41916438e+05,
          9.94175688e+05, 1.05282625e+06, 9.37833188e+05, 1.56978025e+06,
          1.08871062e+06, 6.73186188e+05, 7.97676438e+05, 8.88358188e+05 ]
      - [ 1.88142136e+02, 2.82842708e+00, 0., 3.16227770e+00,
          2.33323650e+01, 7.61577368e+00, 4.24264050e+00, 3.16227770e+00,
          8.90990219e+01, 1.41421354e+00, 1.34467249e+01, 2.68035164e+01,
          2.82462120e+01, 3.52315483e+01, 5.83095169e+00, 0.,
          8.10575049e+03, 8.76395508e+03, 1.13882891e+04, 1.68286914e+04,
          1.10597422e+04, 1.06088369e+04, 6.20077783e+03, 3.11140747e+03,
          3.11232007e+03, 4.69003613e+03, 8.13281396e+03, 1.43046064e+04,
          1.38291172e+04, 1.31701309e+04, 1.06221094e+04, 6.48407031e+03,
          2.03314863e+04, 7.67980859e+03, 1.35597422e+04, 4.46332422e+04,
          2.01948730e+04, 1.09368613e+04, 3.82080352e+04, 1.02408906e+04,
          1.72411465e+04, 1.07374648e+04, 1.08451289e+04, 4.03665625e+04,
          2.68499219e+04, 9.62537695e+03, 4.70288438e+04, 1.95171934e+04,
          1.06104612e+06, 9.34667250e+05, 7.91950688e+05, 1.44223438e+06,
          9.42596750e+05, 5.94276062e+05, 6.38922625e+05, 7.60341625e+05,
          1.02833081e+06, 1.01721556e+06, 9.16819875e+05, 1.53024075e+06,
          1.08160788e+06, 6.77790688e+05, 8.29365625e+05, 908756. ]
      - [ 1.16512817e+02, 7.30056286e+00, 0., 0., 8.64065475e+01,
          3.60841064e+01, 4.45370102e+01, 3.46088257e+01, 1.17705536e+02,
          3.17457867e+01, 2.86348743e+01, 1.01980391e+01, 6.26981773e+01,
          0., 2.58040390e+01, 5.31546593e+01, 6.78458203e+03,
          7.39289551e+03, 1.10650088e+04, 1.50276992e+04, 1.11579180e+04,
          1.10976289e+04, 6.48271582e+03, 3.15982520e+03, 3.11739111e+03,
          4.80151758e+03, 7.76393799e+03, 1.50171602e+04, 1.47086523e+04,
          1.13573340e+04, 7.24659814e+03, 6.13768457e+03, 1.93106973e+04,
          1.02331875e+04, 1.92860977e+04, 4.27851328e+04, 2.27907148e+04,
          8.63007031e+03, 3.82898672e+04, 1.20184668e+04, 1.89610039e+04,
          9.70173242e+03, 1.20212148e+04, 3.59511875e+04, 2.36451250e+04,
          1.25457910e+04, 4.80062031e+04, 1.65405176e+04, 1.08642875e+06,
          9.19553250e+05, 8.08764562e+05, 1.44372650e+06, 9.57976438e+05,
          6.02496938e+05, 6.35834938e+05, 7.63327812e+05, 1.07997925e+06,
          9.87873250e+05, 9.09066562e+05, 1.53677425e+06, 1.10522688e+06,
          6.64927500e+05, 8.53393250e+05, 9.10536062e+05 ]
      - [ 10., 0., 0., 4.64567337e+01, 6.82708359e+01, 1.61553745e+01,
          4.24264050e+00, 1.77330437e+01, 2.13603172e+01, 2.08026848e+01,
          1.03030872e+01, 6.42640839e+01, 40., 1.44222050e+01,
          1.41421354e+00, 1.14084892e+01, 7.43101660e+03, 6.16150488e+03,
          1.02116416e+04, 1.50484756e+04, 9.60001367e+03, 1.16995996e+04,
          5.50946533e+03, 3.08915869e+03, 2.40120044e+03, 4.01767993e+03,
          8.22712402e+03, 1.30576172e+04, 1.38267324e+04, 1.14666865e+04,
          8.14145020e+03, 5.43223291e+03, 2.37032051e+04, 1.25635664e+04,
          1.14790029e+04, 44813., 2.41066309e+04, 9.06725586e+03,
          3.70579336e+04, 1.13356543e+04, 1.81731855e+04, 1.17638271e+04,
          2.00741289e+04, 3.63713945e+04, 2.46035742e+04, 1.10739688e+04,
          4.72398945e+04, 1.84807129e+04, 1.08232525e+06, 9.30513375e+05,
          8.16033875e+05, 1.45151950e+06, 9.50435125e+05, 6.05794688e+05,
          6.59434312e+05, 7.62802125e+05, 1.04317519e+06, 1.03548581e+06,
          9.00695750e+05, 1.52917938e+06, 1.11630938e+06, 6.93127062e+05,
          8.31417375e+05, 9.32906625e+05 ]
      - [ 6.47537231e+01, 3.18517590e+01, 0., 9.48683357e+00,
          3.31622772e+01, 0., 3.67237015e+01, 6.68638840e+01,
          5.44924240e+01, 3.76875343e+01, 3.13049526e+01, 1.77263088e+01,
          1.63245544e+01, 1.78885441e+01, 2.50453262e+01, 3.61772957e+01,
          4.45095605e+03, 7.54048047e+03, 1.00281592e+04, 1.47485713e+04,
          1.17199014e+04, 9.95109082e+03, 6.31925488e+03, 4.26866504e+03,
          3.05772998e+03, 5.24383008e+03, 8.38636133e+03, 1.44952637e+04,
          1.48338682e+04, 8.86291602e+03, 8.61923145e+03, 7.65090332e+03,
          3.09054453e+04, 1.97369492e+04, 2.02323184e+04, 7.21746172e+04,
          3.15457246e+04, 1.81688379e+04, 3.59156211e+04, 2.19776953e+04,
          2.73615879e+04, 1.70452090e+04, 2.10899043e+04, 5.42700195e+04,
          3.75542305e+04, 1.83427070e+04, 4.26963555e+04, 2.77246973e+04,
          9.36916312e+05, 9.58824938e+05, 7.65998812e+05, 1.55752938e+06,
          1.00556050e+06, 6.10127062e+05, 8.10023875e+05, 7.62646188e+05,
          9.81831188e+05, 1.00519638e+06, 8.22810812e+05, 1.58095762e+06,
          1.10567625e+06, 7.74102062e+05, 9.29600500e+05, 926595. ]
      - [ 5.35583572e+01, 8.18689041e+01, 2.17505207e+01, 4.19958725e+01,
          6.85941162e+01, 0., 4.14711838e+01, 2.67206345e+01,
          5.38829117e+01, 6.73860168e+01, 8.94427204e+00, 3.05941162e+01,
          9.78072586e+01, 1.78885441e+01, 8.01844711e+01, 2.98829117e+01,
          5.92002295e+03, 6.17167236e+03, 8.05540234e+03, 1.34153174e+04,
          1.05627324e+04, 1.03678242e+04, 5.92456152e+03, 3.64327246e+03,
          3.57313721e+03, 4.70990430e+03, 7.87199951e+03, 1.24347920e+04,
          1.34225088e+04, 6.95968799e+03, 9.81945703e+03, 7.62676709e+03,
          2.71257402e+04, 1.63196846e+04, 3.00307500e+04, 6.50162734e+04,
          3.36694922e+04, 1.73988770e+04, 3.88504805e+04, 3.13425430e+04,
          2.03601602e+04, 1.56830977e+04, 2.49740039e+04, 5.15831523e+04,
          3.39102266e+04, 1.49748936e+04, 5.22671211e+04, 2.71826660e+04,
          9.21157688e+05, 9.46334688e+05, 8.16524938e+05, 1.67489650e+06,
          1068578., 6.07157312e+05, 8.27714250e+05, 7.59350562e+05,
          9.68215625e+05, 9.59003812e+05, 8.51545062e+05, 1.65764088e+06,
          1.13056812e+06, 8.01195625e+05, 9.15983500e+05, 9.02698312e+05 ]
      - [ 56., 9.89949512e+00, 1.47648239e+01, 0., 4.30332947e+01, 0.,
          0., 0., 0., 7.21110249e+00, 0., 0., 5.71268234e+01,
          2.10250816e+01, 0., 1.64924221e+01, 5.71068799e+03,
          6.21723779e+03, 7.03109424e+03, 1.16449082e+04, 9.85864355e+03,
          9.95786816e+03, 4.75437158e+03, 3.67084546e+03, 3.35134180e+03,
          3.27382886e+03, 5.69858545e+03, 1.13722471e+04, 1.20763740e+04,
          9.37191211e+03, 7.46511182e+03, 5.02634229e+03, 2.12644141e+04,
          1.19954414e+04, 1.40534082e+04, 3.85795391e+04, 1.29730879e+04,
          8.44630664e+03, 2.93526348e+04, 1.88768672e+04, 1.87801172e+04,
          1.45528926e+04, 1.85287773e+04, 5.84775898e+04, 2.78346973e+04,
          1.41458008e+04, 4.33243320e+04, 2.51327910e+04, 8.97055938e+05,
          8.87735500e+05, 7.59596938e+05, 1.67952625e+06, 1.08680488e+06,
          5.42317250e+05, 7.28072188e+05, 7.25822875e+05, 9.09400938e+05,
          9.52594875e+05, 8.31724875e+05, 1.79281862e+06, 1.19220525e+06,
          7.42121625e+05, 8.42538562e+05, 8.70899312e+05 ]
      - [ 7.64471130e+01, 1.89294815e+01, 8.94427204e+00, 4.41535683e+01,
          18., 0., 0., 0., 1.17162277e+02, 9.89949417e+00,
          1.79188614e+01, 1.53323650e+01, 5.21421356e+01, 2.52315464e+01,
          7.07106781e+00, 2.24471149e+01, 7.19210352e+03, 6.14200732e+03,
          7.02607666e+03, 1.35723086e+04, 1.01187939e+04, 9.51931641e+03,
          7.66127930e+03, 4.00512988e+03, 3.41031860e+03, 4.26433936e+03,
          7.06564404e+03, 1.09394326e+04, 1.35946094e+04, 8.91595215e+03,
          9.87891016e+03, 4.80984375e+03, 2.03473301e+04, 1.07351953e+04,
          1.29850420e+04, 3.24465547e+04, 1.99885605e+04, 9.91169238e+03,
          3.06676055e+04, 1.52367090e+04, 1.81934492e+04, 1.14979512e+04,
          1.30938613e+04, 2.74010625e+04, 1.42514512e+04, 1.07818145e+04,
          4.89324375e+04, 1.72886113e+04, 8.64998562e+05, 8.69130312e+05,
          7.55125812e+05, 1741392., 1.10049038e+06, 4.90676719e+05,
          7.39869500e+05, 7.61123500e+05, 8.90475625e+05, 9.33585125e+05,
          8.36834062e+05, 1.69201962e+06, 1.16138625e+06, 7.25171375e+05,
          8.83636625e+05, 8.81473500e+05 ]
      - [ 1.91622772e+01, 1.29574175e+01, 5.83095169e+00, 4.45551529e+01,
          6.99370346e+01, 2.10321827e+01, 7.07106781e+00, 8.26129723e+00,
          1.11622772e+01, 8.48528099e+00, 0., 2.67408543e+01,
          2.11622772e+01, 0., 7.07106781e+00, 3.16227770e+00,
          6.91982373e+03, 8.04023633e+03, 9.56463477e+03, 1.61642471e+04,
          1.23057764e+04, 8.72849512e+03, 5.73032275e+03, 3.28751025e+03,
          3.70116455e+03, 5.17821484e+03, 8.07868262e+03, 1.33576641e+04,
          1.45631494e+04, 1.12011523e+04, 9.84491504e+03, 8.36666309e+03,
          3.25700410e+04, 1.50536670e+04, 3.22496289e+04, 8.03022812e+04,
          3.71315859e+04, 1.52242754e+04, 4.07397305e+04, 2.54706270e+04,
          2.57466738e+04, 2.02326660e+04, 3.37117383e+04, 9.38636797e+04,
          3.79016094e+04, 2.27883926e+04, 4.99558086e+04, 3.25347500e+04,
          9.37913625e+05, 9.47656375e+05, 8.53739375e+05, 1.91366788e+06,
          1.28038112e+06, 6.04380812e+05, 8.43456125e+05, 8.60837312e+05,
          9.24599625e+05, 1.02375969e+06, 9.54895562e+05, 1.85635938e+06,
          1.35046975e+06, 781392., 1.00858806e+06, 9.71340188e+05 ]
      - [ 6.30553856e+01, 1.93027573e+01, 3.00000019e+01, 3.86305733e+01,
          1.28147491e+02, 7.08605270e+01, 1.20472672e+02, 4.30690384e+01,
          8.71186523e+01, 5.65685415e+00, 4.07310028e+01, 3.11548347e+01,
          2.26655304e+02, 7.65732346e+01, 1.21232025e+02, 6.05200500e+01,
          7.39863623e+03, 7.66857422e+03, 1.18651816e+04, 1.84078301e+04,
          1.26015508e+04, 1.04881738e+04, 5.23915430e+03, 2.85172534e+03,
          3.63372192e+03, 5.15828174e+03, 8.20459863e+03, 1.72976855e+04,
          1.48183477e+04, 1.22231426e+04, 1.08466924e+04, 8.33166113e+03,
          2.20329199e+04, 1.86825195e+04, 2.08813965e+04, 6.57269141e+04,
          3.46998008e+04, 1.14686230e+04, 4.00404453e+04, 1.92253359e+04,
          1.83658359e+04, 6.86143652e+03, 1.55349414e+04, 6.75132891e+04,
          3.24454922e+04, 1.49273311e+04, 4.28866445e+04, 1.83535527e+04,
          9.48114500e+05, 9.68412625e+05, 8.80533125e+05, 2152860.,
          1.33052575e+06, 6.20564875e+05, 8.36229625e+05, 8.72037875e+05,
          9.21214062e+05, 1.06862875e+06, 9.94786625e+05, 2137523.,
          1.44651788e+06, 8.18396625e+05, 1.00504356e+06, 9.96287625e+05 ]
      - [ 4.06491089e+01, 4.97545547e+01, 3.02356339e+01, 5.23351364e+01,
          1.67413330e+02, 1.04325462e+02, 2.12837372e+01, 3.43992996e+01,
          6.68811035e+01, 4.26627464e+01, 1.13018013e+02, 6.85454559e+01,
          1.18154404e+02, 1.34164085e+01, 4.14322968e+01, 1.02333450e+01,
          8.07548193e+03, 1.02070801e+04, 1.07874912e+04, 2.51723457e+04,
          1.62050801e+04, 9.34995801e+03, 5.32862305e+03, 5.29678320e+03,
          5.50825439e+03, 5.49300098e+03, 1.07248486e+04, 2.29977578e+04,
          1.82505176e+04, 1.20119775e+04, 7.74579883e+03, 8.97830566e+03,
          2.79870195e+04, 1.23619395e+04, 2.20183906e+04, 7.48339531e+04,
          2.41829023e+04, 1.06365225e+04, 4.14577461e+04, 2.39423516e+04,
          2.27099492e+04, 1.38259893e+04, 2.36597812e+04, 1.11791477e+05,
          3.62218086e+04, 1.59289785e+04, 5.78360977e+04, 2.66302930e+04,
          1130067., 9.95864250e+05, 8.94863875e+05, 2.17486250e+06,
          1.16468588e+06, 6.74565250e+05, 7.87653500e+05, 8.14256812e+05,
          1.06090950e+06, 1.11205675e+06, 1.09065312e+06, 2.00140012e+06,
          1.36372950e+06, 7.71903875e+05, 9.87658438e+05, 9.52348938e+05 ]
      - [ 1.43540665e+02, 10., 0., 7.07106829e+00, 7.08413315e+01,
          1.30744610e+01, 3.44634209e+01, 7.07106781e+00, 1.47071075e+02,
          0., 0., 8.24621105e+00, 6.14202499e+01, 0., 0., 3.16227770e+00,
          6.09151074e+03, 5.92499414e+03, 9.47209570e+03, 1.40715166e+04,
          1.07540596e+04, 1.08020449e+04, 5.44267822e+03, 3.93719946e+03,
          3.43458276e+03, 4.64879785e+03, 7.09701611e+03, 1.50651758e+04,
          1.23631436e+04, 1.11367627e+04, 7.24919629e+03, 6.18162109e+03,
          2.57928398e+04, 1.45307920e+04, 2.51579941e+04, 8.18656406e+04,
          2.16621055e+04, 1.09840322e+04, 3.92835352e+04, 2.09811094e+04,
          2.34929941e+04, 1.73260957e+04, 2.45933926e+04, 6.48165469e+04,
          3.65269922e+04, 1.52349277e+04, 5.09272695e+04, 2.28741797e+04,
          1.13312612e+06, 1.00452775e+06, 9.24336688e+05, 2.06789262e+06,
          1.14109288e+06, 6.72588188e+05, 7.33575938e+05, 7.47093562e+05,
          1.04467519e+06, 1128112., 1.03781094e+06, 1.98139562e+06,
          1.28872688e+06, 7.48706312e+05, 8.96039812e+05, 9.22526625e+05 ]
      - [ 5.19315643e+01, 1.56963835e+01, 0., 0., 1.22462111e+01,
          5.12341576e+01, 2.96984844e+01, 0., 4.39814758e+01,
          7.00637436e+01, 5.23977661e+01, 3.50648117e+01, 6.21323166e+01,
          0., 3.11563072e+01, 5.23757439e+01, 6.13979590e+03,
          6.81091357e+03, 7.10332617e+03, 2.61219355e+04, 1.07309258e+04,
          1.07576885e+04, 5.65762891e+03, 3.85434009e+03, 2.69472119e+03,
          4.90869727e+03, 9.04877734e+03, 2.01379219e+04, 1.51193232e+04,
          1.25656660e+04, 6.97173145e+03, 5.68555127e+03, 21785.,
          8.32101562e+03, 1.31071641e+04, 4.94450742e+04, 2.06303730e+04,
          8.77995508e+03, 3.93406055e+04, 1.69777285e+04, 1.73840117e+04,
          1.10223105e+04, 1.23479980e+04, 3.65278242e+04, 1.85668262e+04,
          9.14406836e+03, 5.06950430e+04, 2.04815293e+04, 1.21371625e+06,
          1035394., 8.81452188e+05, 1.84997725e+06, 1.14708050e+06,
          6.70834188e+05, 8.07436938e+05, 8.62011562e+05, 1.10504962e+06,
          1.13220362e+06, 9.98133500e+05, 1.81620138e+06, 1.35379062e+06,
          7.59805250e+05, 9.76441688e+05, 9.89680938e+05 ]
      - [ 5.46972198e+01, 4.92562294e+01, 0., 3.16227770e+00,
          5.47279892e+01, 8.94427204e+00, 2.00284843e+01, 2.04313850e+01,
          8.26972198e+01, 4.80161133e+01, 0., 4.46198807e+01,
          4.43245544e+01, 10., 9.02998734e+00, 0., 7.36043262e+03,
          6.85831543e+03, 8.26348047e+03, 1.80738359e+04, 1.67323438e+04,
          9.43222461e+03, 8.13438818e+03, 4.58646924e+03, 3.71040063e+03,
          5.51389062e+03, 9.83809570e+03, 1.65291250e+04, 1.67054590e+04,
          7.52435547e+03, 1.26287891e+04, 6.27802930e+03, 2.96533711e+04,
          1.72907676e+04, 2.99284883e+04, 7.67620156e+04, 3.86027461e+04,
          1.69306445e+04, 4.65706602e+04, 2.28707070e+04, 2.34348086e+04,
          1.53803164e+04, 2.59678398e+04, 6.84737656e+04, 4.47224883e+04,
          2.42758574e+04, 5.02726875e+04, 2.17360391e+04, 1.12102862e+06,
          1.16397038e+06, 1.00306931e+06, 1.88462638e+06, 1.00318231e+06,
          5.91042375e+05, 8.57143062e+05, 8.73227938e+05, 1115547.,
          1.23038425e+06, 1.09575925e+06, 1.77267438e+06, 1.21335038e+06,
          7.65458062e+05, 9.44839938e+05, 9.60126625e+05 ]
      - [ 5.44946442e+01, 3.34752083e+01, 2.51299629e+01, 2.95875797e+01,
          1.71622772e+01, 2.10321808e+01, 1.29574175e+01, 6.32455540e+00,
          1.91622772e+01, 1.29574175e+01, 4.47213602e+00, 2.35583553e+01,
          5.27636452e+01, 2.82144909e+01, 2.44452229e+01, 6.32455540e+00,
          7.93915039e+03, 7.11501318e+03, 7.89050684e+03, 2.22548223e+04,
          1.31333730e+04, 1.02918369e+04, 6.87969971e+03, 4.35289453e+03,
          4.04973877e+03, 6.06564795e+03, 7.79710449e+03, 1.89028691e+04,
          1.69036426e+04, 7.82399170e+03, 1.02229609e+04, 7.73218896e+03,
          2.92073223e+04, 1.30766660e+04, 2.16379863e+04, 5.48066914e+04,
          2.43347695e+04, 1.56021621e+04, 4.16257188e+04, 2.31205820e+04,
          2.18633398e+04, 1.38380273e+04, 2.42020137e+04, 5.22786602e+04,
          3.35029336e+04, 2.14671113e+04, 5.21825156e+04, 2.25300371e+04,
          1.11406975e+06, 1.12577388e+06, 9.77769562e+05, 1753995.,
          9.20514250e+05, 5.55353250e+05, 7.97086875e+05, 8.67951812e+05,
          1.06957650e+06, 1.20193250e+06, 1.10709338e+06, 1.66499775e+06,
          1.12687425e+06, 7.39835875e+05, 9.10412500e+05, 9.38062625e+05 ]
      - [ 1.17971390e+02, 2.13873005e+01, 2.59235878e+01, 3.61519051e+01,
          1.60402298e+02, 4.23909988e+01, 3.44001160e+01, 5.09901953e+00,
          3.16227770e+00, 1.61894379e+01, 8.94427204e+00, 2.99439735e+01,
          1.02564034e+02, 1.44332771e+01, 2.13012486e+01, 2.47838917e+01,
          5.98412451e+03, 8.99941406e+03, 9.86846680e+03, 2.17622344e+04,
          1.49762080e+04, 1.13956680e+04, 6.57851074e+03, 3.15204736e+03,
          3.10227808e+03, 4.87320166e+03, 7.59732227e+03, 1.84317949e+04,
          1.83440586e+04, 1.19701885e+04, 1.13404971e+04, 6.74535547e+03,
          3.06969395e+04, 1.26151006e+04, 1.55589482e+04, 6.43977891e+04,
          2.22422012e+04, 1.05520879e+04, 4.14741406e+04, 2.08524121e+04,
          2.71517559e+04, 1.21178027e+04, 1.52498711e+04, 7.15590547e+04,
          3.47202734e+04, 1.23585186e+04, 4.70161875e+04, 3.01477383e+04,
          1.10047950e+06, 1.11296438e+06, 9.21181688e+05, 1.93429912e+06,
          1.06095788e+06, 6.38395562e+05, 8.97731625e+05, 8.95708750e+05,
          1.02633888e+06, 1.17610150e+06, 1.04962838e+06, 1.89624588e+06,
          1.17801862e+06, 7.69714438e+05, 1.02899262e+06, 9.53692688e+05 ]
      - [ 3.44946442e+01, 3.34448929e+01, 0., 3.16227770e+00,
          1.61245155e+01, 0., 1.92369595e+01, 0., 36., 4.47213602e+00,
          0., 6.32455540e+00, 4.43244934e+01, 1.79188614e+01,
          3.06164665e+01, 3.18363075e+01, 6.08664600e+03, 7.43985547e+03,
          1.13066064e+04, 1.95420234e+04, 1.13427598e+04, 1.17722305e+04,
          6.20762500e+03, 3.29439087e+03, 3.76751270e+03, 5.89632568e+03,
          7.82356836e+03, 1.67138965e+04, 1.74797539e+04, 1.13577197e+04,
          9.19019336e+03, 6.78364990e+03, 3.13929316e+04, 1.30656299e+04,
          2.84847031e+04, 7.60073359e+04, 2.69965801e+04, 1.60721172e+04,
          4.64496289e+04, 2.42452422e+04, 2.97331582e+04, 1.51746562e+04,
          1.93077637e+04, 6.70239297e+04, 3.86770742e+04, 2.11946895e+04,
          5.52772188e+04, 2.48668516e+04, 1.01007056e+06, 1.07835412e+06,
          9.58595812e+05, 2.13815975e+06, 1.10666012e+06, 6.10453688e+05,
          871498., 8.81230562e+05, 1.02245225e+06, 1.06509712e+06,
          1.08933725e+06, 2.03514350e+06, 1.22843438e+06, 7.62527625e+05,
          9.99365562e+05, 9.59998750e+05 ]
      - [ 7.04409866e+01, 2.33159027e+01, 8.60232544e+00, 3.04280510e+01,
          9.36234741e+01, 1.20830460e+01, 2.82842708e+00, 2.47582588e+01,
          9.38732910e+01, 1.10291946e+02, 4.37019730e+01, 4.80941048e+01,
          5.42612991e+01, 0., 5.08010712e+01, 5.26135864e+01,
          6.17563184e+03, 7.71813330e+03, 8.75794922e+03, 1.87758027e+04,
          1.40620371e+04, 9.74111426e+03, 5.88109863e+03, 4.88716602e+03,
          3.93505640e+03, 3.92872607e+03, 1.08701875e+04, 1.74153730e+04,
          1.26856465e+04, 1.15968828e+04, 9.42100586e+03, 8.20670898e+03,
          1.85442988e+04, 1.04088682e+04, 1.71735977e+04, 3.83614805e+04,
          2.01007617e+04, 6.50309375e+03, 3.08475703e+04, 1.85272617e+04,
          1.64558984e+04, 1.19482305e+04, 1.35081670e+04, 5.11244219e+04,
          4.37966328e+04, 2.26976992e+04, 4.08655664e+04, 1.45734941e+04,
          1.01852169e+06, 8.86046562e+05, 844680., 1486294.,
          8.75258375e+05, 5.11515438e+05, 6.88728938e+05, 7.51088625e+05,
          9.78557188e+05, 9.30177312e+05, 8.93460938e+05, 1.56911312e+06,
          9.93921750e+05, 7.09859688e+05, 8.22944562e+05, 8.33018625e+05 ]
      - [ 0., 0., 1.58113880e+01, 3.16227770e+00, 2.53044128e+01, 10.,
          1.41421354e+00, 0., 3.16227770e+00, 7.07106781e+00,
          2.23909969e+01, 3.61211815e+01, 4.29736633e+01, 0.,
          1.41421354e+00, 0., 7.98981592e+03, 7.32831787e+03,
          1.29867646e+04, 2.02369258e+04, 1.42580332e+04, 9.46808496e+03,
          9.23767188e+03, 3.48917773e+03, 3.74923657e+03, 5.57227881e+03,
          1.16921650e+04, 2.08515391e+04, 1.68729727e+04, 8.80146582e+03,
          1.00671611e+04, 7.21291650e+03, 2.54958750e+04, 1.33330820e+04,
          3.22404492e+04, 9.03562500e+04, 2.51599629e+04, 1.13739795e+04,
          3.29467383e+04, 2.61244395e+04, 2.80945703e+04, 1.55427949e+04,
          2.22000684e+04, 4.85932227e+04, 2.20369277e+04, 1.14067383e+04,
          4.94437539e+04, 2.36640430e+04, 1.07986250e+06, 1.05271050e+06,
          8.33081125e+05, 1.82188338e+06, 9.71094125e+05, 5.60603500e+05,
          7.59919062e+05, 8.11643562e+05, 1.06300238e+06, 1.07531412e+06,
          9.94304438e+05, 1.78287662e+06, 1.07148488e+06, 6.87454250e+05,
          9.44059562e+05, 8.57893312e+05 ]
      - [ 2.32795067e+01, 2.10321827e+01, 1.86128559e+01, 3.60030518e+01,
          2.76848717e+01, 5.83095169e+00, 1.47648239e+01, 3.02658939e+01,
          1.91622772e+01, 2.02579803e+01, 2.42700405e+01, 3.57637482e+01,
          8.04034348e+01, 5.83095169e+00, 7.72661819e+01, 1.81955738e+01,
          7.69450684e+03, 7.99236035e+03, 1.13850654e+04, 1.97794902e+04,
          1.74887617e+04, 1.34565078e+04, 8.68417383e+03, 3.73385181e+03,
          4.31475391e+03, 7.19235840e+03, 8.40666895e+03, 2.13826133e+04,
          1.95863125e+04, 8.72990918e+03, 1.34702002e+04, 6.07521777e+03,
          3.27463535e+04, 1.48731807e+04, 2.74778809e+04, 8.85012734e+04,
          3.53537461e+04, 2.04980820e+04, 4.73319375e+04, 2.16806484e+04,
          2.99231719e+04, 1.79662344e+04, 2.40266270e+04, 7.06897656e+04,
          3.83519453e+04, 2.18390137e+04, 5.19899766e+04, 3.15395254e+04,
          1.14008425e+06, 1.16383475e+06, 8.42414625e+05, 1.70693975e+06,
          1.13774362e+06, 6.48406812e+05, 7.84881125e+05, 7.96707250e+05,
          1.09785612e+06, 1215292., 9.85240812e+05, 1.63385525e+06,
          1.22318038e+06, 7.15400938e+05, 931381., 9.11351438e+05 ]
      - [ 4., 2.82842708e+00, 2.37423553e+01, 5.68111076e+01,
          1.45827011e+02, 2.00040779e+01, 1.04442005e+01, 0.,
          3.21980400e+01, 1.18584137e+01, 1.16832390e+01, 6.32455540e+00,
          1.15332367e+02, 0., 2.82842708e+00, 0., 8.35113477e+03,
          6.75486328e+03, 1.05656299e+04, 1.97935762e+04, 2.59894414e+04,
          8.96513477e+03, 8.39032617e+03, 5.23875488e+03, 5.98203027e+03,
          6.73528516e+03, 1.02562070e+04, 1.50132207e+04, 2.81058184e+04,
          9.88911230e+03, 1.16708594e+04, 6.10587207e+03, 2.43928828e+04,
          7.33825098e+03, 1.42458438e+04, 4.51315430e+04, 1.22014629e+04,
          4.62006592e+03, 3.41143164e+04, 1.70371699e+04, 2.00480840e+04,
          1.17459277e+04, 1.82232168e+04, 4.92503633e+04, 2.65151211e+04,
          1.05302266e+04, 5.01609375e+04, 2.00300879e+04, 1.06240412e+06,
          1.02267119e+06, 7.87216125e+05, 1.45391638e+06, 1.30824938e+06,
          5.96335938e+05, 7.87324250e+05, 7.59462188e+05, 1.04611944e+06,
          1086220., 9.19158500e+05, 1.50353225e+06, 1.41325350e+06,
          7.05079188e+05, 9.54969312e+05, 863946. ]
      - [ 1.61099014e+02, 3.72347908e+01, 2.47752228e+01, 9.05538559e+00,
          0., 0., 1.41421354e+00, 0., 1.27162277e+02, 2.33159027e+01, 0.,
          0., 9.16227722e+00, 0., 0., 6.32455540e+00, 7.68273291e+03,
          7.63813232e+03, 7.61571289e+03, 1.55542266e+04, 1.24499111e+04,
          1.09692100e+04, 1.00210859e+04, 5.02213428e+03, 3.94038135e+03,
          3.81402075e+03, 1.13468525e+04, 1.42245381e+04, 1.59838105e+04,
          7.07886182e+03, 1.08157402e+04, 7.59468164e+03, 2.27898613e+04,
          9.63521973e+03, 2.09381406e+04, 5.48178359e+04, 2.14570781e+04,
          1.21120127e+04, 3.33937461e+04, 2.33320801e+04, 2.03618477e+04,
          1.16226377e+04, 1.70159531e+04, 4.76071797e+04, 4.08892930e+04,
          2.13869648e+04, 4.45430625e+04, 2.03290840e+04, 1.13747150e+06,
          9.39488188e+05, 6.92441188e+05, 1.61517650e+06, 9.37167500e+05,
          6.25906688e+05, 6.94437688e+05, 8.06123750e+05, 1111361.,
          9.90221125e+05, 8.28502125e+05, 1.55176162e+06, 1.13104062e+06,
          7.29655812e+05, 8.52739812e+05, 894731. ]
      - [ 20., 2.69342079e+01, 1.78885441e+01, 4.28701477e+01, 44.,
          1.34164085e+01, 2.30384064e+01, 0., 1.82462120e+01,
          1.29574175e+01, 0., 0., 4.13956261e+01, 0., 3.39342003e+01,
          4.65623474e+01, 6.50918799e+03, 5.88701807e+03, 9.05138770e+03,
          2.36871289e+04, 1.27910107e+04, 1.05238750e+04, 1.08194238e+04,
          2.60746143e+03, 5.61554980e+03, 3.92849658e+03, 9.57976953e+03,
          1.80425977e+04, 1.87647324e+04, 5.59681885e+03, 1.43475459e+04,
          7.43565527e+03, 2.25119004e+04, 1.29369248e+04, 2.03956270e+04,
          5.43989336e+04, 2.10407109e+04, 9.92177148e+03, 3.41842070e+04,
          2.06076504e+04, 2.31319551e+04, 1.27730928e+04, 2.36382715e+04,
          4.46627734e+04, 3.80042109e+04, 1.92884395e+04, 4.75877969e+04,
          2.12384766e+04, 1.12145125e+06, 9.51419125e+05, 6.90046875e+05,
          1.64917788e+06, 9.71963625e+05, 6.58423375e+05, 7.25738875e+05,
          7.92958938e+05, 1.10398750e+06, 1.03321625e+06, 8.10289250e+05,
          1636964., 1.14964488e+06, 7.41205438e+05, 8.84591438e+05,
          9.16552125e+05 ]
      - [ 16., 2.28035069e+01, 1.14017534e+01, 4.58578491e+01,
          8.02708359e+01, 2.23909969e+01, 10., 0., 0., 0.,
          1.34467249e+01, 8.26129723e+00, 1.49601364e+02, 1.58113871e+01,
          1.91035786e+01, 1.53323650e+01, 7.00080420e+03, 6.63973486e+03,
          9.14712695e+03, 1.94646484e+04, 1.50117529e+04, 1.21295059e+04,
          7.73128662e+03, 4.74511621e+03, 4.30192383e+03, 4.02392505e+03,
          8.04749512e+03, 1.96919121e+04, 1.72392559e+04, 7.33974414e+03,
          1.28064688e+04, 7.12807471e+03, 2.10099590e+04, 9.90943750e+03,
          2.14563203e+04, 4.88401367e+04, 2.01434043e+04, 9.41762793e+03,
          3.30762656e+04, 2.36904688e+04, 2.00132344e+04, 1.24045215e+04,
          1.84941719e+04, 5.00462266e+04, 3.55570352e+04, 1.79399082e+04,
          4.98423945e+04, 2.09858945e+04, 1.14487562e+06, 9.39324438e+05,
          6.85534250e+05, 1677226., 9.81528562e+05, 6.46194188e+05,
          7.17588562e+05, 7.72491750e+05, 1124159., 1.03588206e+06,
          810012., 1.65577650e+06, 1.16101250e+06, 7.42124312e+05,
          8.72120688e+05, 9.12972125e+05 ]
      - [ 6.61980362e+01, 8.94427204e+00, 1.30384054e+01, 0.,
          6.74017563e+01, 0., 0., 3.16227770e+00, 0., 0., 0.,
          5.09901953e+00, 1.92353840e+01, 1.74928570e+01, 0.,
          9.05538559e+00, 7.56481250e+03, 6.53789941e+03, 8.18195557e+03,
          2.05306797e+04, 1.47079453e+04, 1.08388877e+04, 1.06268018e+04,
          5.27481299e+03, 4.36986084e+03, 4.29108594e+03, 1.12709648e+04,
          1.70229199e+04, 1.65999531e+04, 8.81808105e+03, 1.25419043e+04,
          8.07542432e+03, 2.45904590e+04, 9.46588281e+03, 1.56460205e+04,
          5.15495898e+04, 2.14510723e+04, 1.05246455e+04, 3.28657852e+04,
          2.26981367e+04, 1.99236602e+04, 1.19959316e+04, 1.64697246e+04,
          4.07553789e+04, 2.78528711e+04, 1.82141211e+04, 4.66229375e+04,
          2.05235332e+04, 1.14587488e+06, 9.44765062e+05, 7.07159688e+05,
          1.51834475e+06, 9.49315125e+05, 6.59634125e+05, 7.00141312e+05,
          8.41643438e+05, 1.11522162e+06, 1.06829288e+06, 7.70411562e+05,
          1.57897350e+06, 1.12821825e+06, 7.09331625e+05, 9.14224625e+05,
          9.48451938e+05 ]
      - [ 1.26165527e+02, 2.54558430e+01, 2.86795712e+01, 3.23339844e+01,
          8.51938782e+01, 4.47213602e+00, 1.48609390e+01, 6.61482544e+01,
          46., 5.65685415e+00, 1.58738899e+01, 2.47469845e+01, 10., 0.,
          1.04442005e+01, 0., 8.82153906e+03, 6.86740527e+03,
          1.13624463e+04, 1.45156455e+04, 1.11025664e+04, 1.15058770e+04,
          8.73828320e+03, 3.33624438e+03, 3.60681470e+03, 5.19729785e+03,
          1.02927402e+04, 1.27607227e+04, 1.46486357e+04, 9.61913477e+03,
          1.13168027e+04, 8.19367480e+03, 1.53996465e+04, 7.96489014e+03,
          1.23753965e+04, 3.76098047e+04, 1.73214336e+04, 4.49543359e+03,
          3.43945391e+04, 1.47205088e+04, 1.35019658e+04, 9.68643359e+03,
          1.06229639e+04, 3.11286309e+04, 1.61409277e+04, 1.01539814e+04,
          4.38662383e+04, 2.02608418e+04, 1.10759675e+06, 7.93739625e+05,
          6.87109938e+05, 1.23361762e+06, 8.07275625e+05, 5.80947562e+05,
          7.27642250e+05, 1.01454512e+06, 1172848., 8.67568625e+05,
          8.21515812e+05, 1.29680962e+06, 9.16536812e+05, 6.94896125e+05,
          9.29950375e+05, 1.17308150e+06 ]
      - [ 3.26491089e+01, 6.16002426e+01, 8.60232544e+00, 2.55561581e+01,
          1.23195862e+02, 5.74603271e+01, 3.79170303e+01, 9.48683357e+00,
          32., 2.14426975e+01, 6.82304382e+01, 5.77234764e+01,
          4.21700897e+01, 7.21110249e+00, 8.48528099e+00, 6.62844391e+01,
          6.32781299e+03, 6.97938525e+03, 9.36204199e+03, 2.04685430e+04,
          1.32462188e+04, 1.16265908e+04, 6.35375928e+03, 3.36637451e+03,
          5.04276709e+03, 3.97590283e+03, 9.79866113e+03, 1.50357949e+04,
          1.75216992e+04, 6.43826172e+03, 1.12590547e+04, 5.97365820e+03,
          1.97854023e+04, 1.08477207e+04, 1.62349189e+04, 4.61617891e+04,
          2.43627969e+04, 9.24244434e+03, 3.55466367e+04, 1.52772637e+04,
          1.72929258e+04, 1.21535068e+04, 1.83020547e+04, 4.64361836e+04,
          3.05073496e+04, 1.47643311e+04, 3.98322539e+04, 2.66086699e+04,
          1.14894262e+06, 9.49699250e+05, 7.20779188e+05, 1629664.,
          9.96180062e+05, 6.51834812e+05, 8.06161625e+05, 9.59835125e+05,
          1.06435888e+06, 1.08572550e+06, 7.99508500e+05, 1.60769038e+06,
          1.18365012e+06, 7.22818938e+05, 1.00604394e+06, 1.02376394e+06 ]
      - [ 90., 5.34179802e+01, 3.47512474e+01, 1.77200451e+01, 10.,
          1.86010761e+01, 5.29322662e+01, 2.28102417e+01, 1.40810242e+02,
          3.73117638e+01, 2.33414917e+01, 3.22490311e+01, 7.68993912e+01,
          7.20337143e+01, 0., 0., 5.95965332e+03, 7.69518311e+03,
          9.58430078e+03, 2.28567988e+04, 1.38689141e+04, 8.34872363e+03,
          8.14631104e+03, 4.32473730e+03, 4.80421094e+03, 5.59199463e+03,
          7.24598047e+03, 1.86050703e+04, 1.74035234e+04, 9.08561035e+03,
          7.68145703e+03, 6.12507959e+03, 2.00446836e+04, 1.02893262e+04,
          1.44763848e+04, 3.64196016e+04, 2.15177617e+04, 9.33775195e+03,
          3.30443086e+04, 1.81834082e+04, 1.85525273e+04, 1.11464658e+04,
          1.76487832e+04, 5.11518398e+04, 2.55137148e+04, 1.33867607e+04,
          5.13133281e+04, 2.20555332e+04, 1.13793462e+06, 9.35921125e+05,
          7.46393125e+05, 1.58081938e+06, 9.84449312e+05, 6.62317188e+05,
          8.07027375e+05, 9.80119312e+05, 1.06833462e+06, 1.05659725e+06,
          7.79890125e+05, 1.59295875e+06, 1.17670512e+06, 7.25436500e+05,
          1.03308244e+06, 1.00999450e+06 ]
      - [ 5.10316277e+01, 1.29574175e+01, 4.38885460e+01, 9.05076675e+01,
          1.32834213e+02, 2.50633965e+01, 3.47176552e+01, 3.16227770e+00,
          3.16227770e+00, 2.42711258e+01, 4.47213602e+00, 2.23976612e+01,
          9.24393158e+01, 4.47213602e+00, 3.20609970e+01, 1.84946423e+01,
          7.01236865e+03, 6.89171680e+03, 8.19370508e+03, 1.50910801e+04,
          1.23581348e+04, 5.31362842e+03, 9.18195703e+03, 4.46591895e+03,
          4.43654883e+03, 5.22250684e+03, 8.02333496e+03, 1.18472900e+04,
          1.06879180e+04, 6.88186523e+03, 1.01612207e+04, 6.50083008e+03,
          2.07681387e+04, 9.58712207e+03, 1.24923418e+04, 3.00764355e+04,
          1.88265254e+04, 1.02445078e+04, 2.86568672e+04, 1.88262168e+04,
          1.74321230e+04, 1.26582373e+04, 1.28639736e+04, 3.33307188e+04,
          2.31583652e+04, 1.28059941e+04, 4.47651445e+04, 2.20719023e+04,
          1.15777788e+06, 9.26170438e+05, 6.16216312e+05, 1.15844038e+06,
          8.35134312e+05, 5.65296938e+05, 6.99102875e+05, 9.99415438e+05,
          1.08645712e+06, 1.01000538e+06, 7.12780688e+05, 1212323.,
          9.91555312e+05, 6.45547688e+05, 9.18220438e+05, 1.02232338e+06 ]
      - [ 1.21345230e+02, 1.84390888e+01, 1.47752237e+01, 5.27507706e+01,
          6.58941727e+01, 3.45148430e+01, 4.47213602e+00, 3.16227770e+00,
          9.31622772e+01, 1.43716307e+01, 1.44222050e+01, 1.03064934e+02,
          4., 2.05957756e+01, 0., 1.33452301e+01, 6.67328809e+03,
          6.42199365e+03, 9.24743848e+03, 2.31455742e+04, 1.34147295e+04,
          1.09125029e+04, 7.02655371e+03, 5.35657715e+03, 4.12340527e+03,
